solver_type L2R_L2LOSS_SVC_DUAL
nr_class 6
label 1 2 3 4 5 6
nr_feature 27000
bias -1
w
-0.01386129677251244 0.00180157170934668 0.01037839864521746 -0.02134218088437206 0.008281456144560471 0.004648517360952878 
-0.01009631442342077 -0.004992735873470923 0.01109492596972003 -0.0006364172576890959 -0.0008152116532549191 0.001285302090798953 
-0.03141607300166847 -0.001299789015148862 0.005150322106613592 0.004895317083686135 0.01366868925645032 -0.006645238676959836 
0.006077175954607292 -0.001990579830618658 0.007928794325579459 -0.004485922824750936 -0.01952418774017515 0.01524207829460917 
-0.01326845839859452 -0.01051370678497462 0.01712139191691118 -0.01116907090972324 -0.01746040297328107 0.00380526820147414 
-0.01152933401646444 -0.01179028827508736 0.03558390454966708 -0.03393007879410566 -0.0269966092429763 -0.01198567471981037 
-0.03033555510144552 -0.01859033387378772 0.009606859584951498 -0.01921075874876382 0.001377498206760246 0.002565983832172704 
-0.01856597615437681 0.009549345496207834 0.001981554328599403 -0.002878105005512293 -0.008410072288873709 0.01486168221452988 
-0.03393129727736902 -0.009368122099023666 0.009467334416515649 -0.01816079851479451 -0.005547094763267421 0.01429038484937829 
-0.0307918667575167 -0.01650640569759657 0.03253567718950502 -0.005555572234742767 -0.02570678217669042 -0.01634443392093082 
-0.01289848889227792 -0.005805993485466537 0.007475111005048267 0.001041536450805172 -0.004763481129213317 0.01273859023848864 
-0.01145093336046693 0.004271286855067329 0.003900342985456322 -0.007187950199294068 0.002738354709878127 0.00155795254684861 
-0.006698368880466349 0.001607762056437219 0.002378082222161727 -0.008950553642078928 -0.001914645152421278 0.01947246426501408 
-0.02098585580870619 0.01468145551615931 -0.007115405316089668 -0.00658924543242539 0.00943450343905018 -0.0005069415388365516 
-0.0435897890145474 0.01908059789429053 -0.01284968540571414 -0.005098016810337793 0.01097321148616159 0.002109094044331352 
-0.01123392156604032 0.004588058671972739 0.006758966190830191 -0.002451164028742402 -0.01577428127366417 0.01349815176444807 
-0.01139917501599729 0.006394299218442976 0.01118111368258096 -0.004576028889646922 -0.009823293159657706 0.01161992554262909 
0.01219447869732304 0.003057437332455633 0.006921154409129313 -0.005841508619521124 -0.004721479112368116 0.005176172742500486 
0.006985943001967503 -0.007576620747210489 0.007729769901591713 0.01004550963495317 -0.01143072535763704 0.005955086131697865 
-0.01855486920457611 0.02119568149862921 -0.002498723644401801 -0.0191695471667424 -0.005683553305059962 0.01339022316123266 
-0.01003215268398524 0.01202536044920681 -0.004704101273856884 -0.01119955812056271 -0.004870893364391853 0.02593608153702999 
-0.04912206627686336 -0.007235831051578236 0.004570140416316924 0.001560287884162393 -0.005571239559785325 0.008593218814955334 
-0.04260243709718446 -0.02469986944360479 0.0378917636237754 -0.02631227166414194 -0.01820115420008839 -0.008309894501486576 
-0.03763336943864464 -0.0126126456559824 0.0196027317932226 -0.02127357314587052 0.002303947272402053 -0.0006572014937662532 
0.01716531735847714 0.0007970674226926089 -0.0007052950432164965 -0.004824301954119202 -0.001345738877194513 -0.005326099405621732 
0.01500696526245143 0.00588692314031488 -0.009730780550325897 0.002914060227512666 -0.01173845215678133 -0.00584393477776441 
-0.006061569951143173 0.02490540640164242 -0.02903707135769477 -0.01175836391857411 0.04208638548407706 -0.03406694338127796 
0.006721256993112704 0.02212925425710148 -0.01416736012679728 -0.01190194857671822 0.01407575826616772 -0.02180026862850264 
0.01024845164582093 0.0167291778242218 -0.00282899046526879 -0.003320630106040524 -0.004040057936867319 -0.01883305913989966 
0.01003159970045242 0.003829427762612407 0.001674388594929615 -0.002735488575801747 0.00715652587098694 -0.002576474247901074 
-0.008286123601176656 -0.01655385115004776 -0.01396088086609203 0.01497028679889641 -0.01066498090817902 0.02585197504371428 
-0.01047774553020311 0.007104502109779324 -0.01676490641344519 0.007993450499497541 -0.008815626906711765 -0.006146982173018057 
-0.01490735473294452 0.02427016790066605 -0.01354605869866053 -0.006856896393729861 -0.02461238562060293 0.0378461398590749 
-0.04070384552464777 0.01242549438803866 -0.01953891967599863 -0.006291518473593763 0.002491701741348864 0.02107487063513261 
-0.03017246733712164 0.009536454236360235 -0.006702864717000588 -0.004522665561465723 0.01188906782972561 -0.001981234094366508 
-0.01822654657517939 -0.003775204697258214 0.00281926075243399 -0.01075160170789308 -0.002469818182691413 0.0185123978374257 
0.008301568706226959 -0.001529707562521598 0.001858945587667359 0.003812468700843061 0.00103195445746198 -0.01249114929033422 
0.0112604666456268 -0.002927366994736732 -0.002817942058385113 2.990126366055554e-05 0.0006655044340217165 0.006130046268737934 
-0.01745427111077085 0.01560696522973454 -0.03473322404146086 -0.02579468534878807 0.02644289709512306 -0.02274476773113896 
0.005993097436642937 0.04477103885155809 -0.03126561883659656 -0.01785552637017003 -0.01872499909615721 7.679484703311755e-05 
0.00183499244340488 -0.009231465744917237 0.001749932404483433 -0.006936255018279098 0.007774111433368515 0.007152123520670628 
-0.01908795546430602 0.004936862657800879 0.01007130691598493 -0.004036242063222594 0.0001167907966071403 0.02055887405367685 
-0.02968183392652173 -0.0163952141034352 -0.01444069998589515 0.0185569320960353 0.003221317438570655 0.0301002153073002 
0.02037756322636202 -0.006900467661554133 -0.01403877571564617 0.01191154550338739 -0.01842425749172429 0.01579360404602213 
-0.005101532194425644 0.02349294233457752 -0.01451250219926323 -0.01831717212533185 -0.03931594613055932 0.0116248249032882 
-0.01944233950529318 0.02444169883543257 -0.0210126322372384 -0.01617461854995383 -0.02149717247691437 -0.01351526708160803 
-0.01297385078230614 0.01478095331803961 -0.001029460772236983 0.003435646561892634 0.00158232089936171 0.01094202780109843 
0.0135345704405437 -0.01087497453763806 -0.003765125975338633 0.02027216292711817 -0.003042410282934673 -0.008789352052632345 
0.02303877193750874 0.00372624717123263 -0.000971691870328383 -0.00586672008004771 -0.01068030966011629 -0.01305155389743481 
-0.001706896331369219 0.006702264548558566 -0.006306407691434774 -0.0009758046504697728 -0.00784877080397998 -0.000287286286003194 
0.0140846553957097 -0.0003978065563143753 -0.01389609722790889 -0.009830174175712317 -0.008914905945205987 -0.01623162647039487 
-0.0003513079432668931 0.02677113373224225 -0.02345990441779211 -0.009649512254427738 -0.004143587710180412 -0.008900188162045262 
0.004586156814061717 0.002782218551344151 -0.01076546860977652 -0.005598966028007081 -0.00605556042985944 0.01347573281205663 
0.02531276470182981 -0.006011314652667033 -0.004477988205749755 -0.005541948283957307 -0.01267767429153635 0.01982668952558365 
-0.04209585700129234 0.01147899148552963 -0.02002685060038495 -0.004126737099973544 0.02348599567084843 0.01473861825325136 
-0.02128849476342166 0.005189154443644737 -0.016790946903029 0.001910878566869375 -0.000790885983664422 0.004419869466795187 
-0.01342771244714781 0.01134598547142062 -0.01039448810796033 -0.01329856084865571 -0.01995530896734108 0.005854704649643631 
0.01817883699590503 0.01162502732068772 -0.005963529398770697 -0.04019732666965158 -0.04283481586577879 -0.007779058358447374 
-0.002408910860580888 0.002243979115256272 0.004089835418229335 -0.008115489128763401 -0.00470145106336225 0.01575767974895568 
-0.00638241489675635 0.01811734119342795 -0.0002303036807979323 -0.005279018208847098 -0.005304739095465551 0.004447560032030982 
-0.04604467153536766 -0.01359496308315023 -0.008594951474884656 -0.004376816827980088 -0.01974401354544777 0.06356587731468795 
-0.01122373589602735 -0.00125503702853111 0.02889018110153253 -0.003543191969096958 -0.03616890805149756 0.0179342286952193 
0.004781881393269358 0.01611724196696396 0.004823524831231766 -0.01829125483544874 -0.00254509434419227 -0.01173227021293522 
-0.01052892385926503 0.02186149616145266 -0.01638634101025929 0.003258071870654893 -0.009554729596259828 0.003855338013845085 
0.01360859450534832 -0.000513074198489427 -0.001208736665520564 0.001582219915694818 -0.02383789378530281 0.007543467853306929 
0.02244216111662742 -0.01242850635157701 0.00144031399708872 -0.005399934160956982 -8.713979718886641e-06 -0.0150195258554938 
-0.02235079230180197 -0.01305946762751345 0.01444196032015827 -0.02499755057311362 0.01130851846355943 -0.01260558603674887 
-0.01682209388680027 -0.04612514074204249 0.02343261814618658 -0.016882914894716 -0.03355919579290013 -0.02539434677164061 
-0.04982812128947244 -0.02997814839218062 0.004762640090351763 -0.003821978127614953 -0.007656233024813251 0.02237661630751746 
0.001218946032847546 0.006135441020836101 -0.02420849538283681 -0.0143188902670815 -0.00489699283337714 0.0007589504166189692 
-0.01477609392981474 0.02120757402643106 -0.008413830671423582 -0.01154452924010009 -0.001403079265391995 0.00693722111589569 
-0.01870936765339279 0.00540832810204075 -0.0002624168875224833 -0.007265748585596822 -0.0132107393488528 0.02734644822026873 
-0.0200761569390065 -0.001790095580678241 0.01483107692487071 -0.0148552019388169 -0.01155300936061236 0.002276298583098802 
-0.031322277790039 -0.01206951907296814 0.02646944912571737 -0.01188894964313768 -0.01154862958322554 0.008132638993759435 
-0.01813208183831793 -0.008813862577008289 0.001356322352180694 0.01233497458521988 0.006580183029098075 -0.0002765610903092365 
-0.01339699315343114 -0.01023792170939176 0.01159859133857183 -0.001007598500581482 0.0013203097343755 -0.01973728868171497 
-0.0005156960625799432 -0.01479292336317769 0.001850902077178424 0.01191405690738542 -0.01584124350443615 0.01505191201374758 
-0.01853018262496547 -0.01308157555954406 -0.006769831277516597 -0.006381757380279784 0.02201622344070144 -0.0007345907960294573 
-0.03177913985684516 -0.003380592916479925 -0.003068825636507776 -0.0006892992069678436 0.0008583203747092928 0.02136322368424724 
-0.01778780983964934 -0.01321115122726114 0.01215619926807049 -0.01042554672665869 -0.005361400549246369 -0.005944377610784139 
-0.02932101382882036 -0.0091986396013275 0.01035139546689199 -0.007766959381695448 -0.01043815729937366 0.01586521521511316 
-0.02528142831240624 -0.01374581237882837 0.0131634760358546 -0.01623214832450019 -0.01877649076213267 -0.01780592239026211 
-0.01403099759379706 -0.01243331423199484 -0.004233279568762511 0.002387263265403811 0.001933372634707521 -0.003450305646468405 
-0.001186554780814393 -0.02687207288159126 0.007394292866646389 -0.02470553295520096 -0.001534824842115424 -0.0271880001631771 
0 0 0 0 0 0 
0 0 0 0 0 0 
0 0 0 0 0 0 
0 0 0 0 0 0 
0 0 0 0 0 0 
0 0 0 0 0 0 
0 0 0 0 0 0 
0 0 0 0 0 0 
0 0 0 0 0 0 
0 0 0 0 0 0 
0 0 0 0 0 0 
0 0 0 0 0 0 
0 0 0 0 0 0 
0 0 0 0 0 0 
0 0 0 0 0 0 
0 0 0 0 0 0 
0 0 0 0 0 0 
0 0 0 0 0 0 
0 0 0 0 0 0 
0 0 0 0 0 0 
0 0 0 0 0 0 
0 0 0 0 0 0 
0 0 0 0 0 0 
0 0 0 0 0 0 
0 0 0 0 0 0 
0 0 0 0 0 0 
0 0 0 0 0 0 
0 0 0 0 0 0 
0 0 0 0 0 0 
0 0 0 0 0 0 
0 0 0 0 0 0 
0 0 0 0 0 0 
0 0 0 0 0 0 
0 0 0 0 0 0 
0 0 0 0 0 0 
0 0 0 0 0 0 
-0.02607123159825916 0.008648385690855626 -0.006894832623226336 -0.0126376477950763 0.01065915200970332 -0.002980764569729468 
0.0129020048689788 0.01457301332674298 -0.01187675105653787 0.007536943705796361 -0.009339101156530173 -0.007753869060309129 
0.01080484588252289 -0.008238372937257116 -0.008468774028323319 0.01434005572646724 0.009224827071894979 -0.004007530036093778 
-0.03903449721170225 -0.01580031146956288 0.03080272254535226 -0.01064111031319282 -0.02453296213782273 -0.002917020652257356 
-0.03970826865794178 -0.02114407793296598 0.03689193396199872 -0.01892446432537232 -0.03258631390607621 0.01751660351047181 
-0.01143524838157191 -0.0007226485052935546 0.00411215658273131 -0.009870528464682761 -0.01301462281128956 0.02496250366215457 
-0.01657714288164982 0.009298348681928146 0.003163751660507598 -0.0147360662653178 -0.03023356077072465 0.02617036052847561 
0.01161327273496097 -0.002154070359484759 -0.01178470899922146 -0.01814250699019005 -0.006802995229215575 0.003887173345839527 
-0.01368674823874312 -0.000461148167737463 -0.005565260406183436 -0.007773053765089796 0.004798715660650924 0.01270614057527005 
-0.02272557834248157 0.01193654947342032 0.00011744335025648 0.00253217541970523 -0.004970733540144341 0.01405365543428354 
-0.04413461808874527 -0.005196357171240452 0.04531120606495321 -0.007696716439359238 -0.03066130186960379 0.01298234869457148 
-0.03064099482679349 0.01042955228859587 -0.0007417365413349178 -0.02076150115987417 0.01126207271395793 0.01118446908331573 
0.04500572764061846 -0.02836532682054511 -0.01322169089087867 -0.001693767665725783 -0.02485480422777134 0.02954510920700996 
-0.03417115251651107 0.005462465020040995 -0.02418718685684825 -0.006959511277610407 0.04472391336870976 -0.008601534916592586 
0.0217863625778859 0.0007479962274245997 -0.03796712482588694 0.01184469094410346 0.03555400499984301 -0.04559342238440746 
-0.01061891476193386 0.00599298566389763 0.005830167869722907 -0.01342230496481558 -0.03227632118832035 -0.02054805137118865 
-0.07500137514306231 -0.02514756062140954 0.07135652193011692 -0.03771135194988819 -0.06149957094455787 0.02047257811137952 
-0.02659553297952883 -0.01194240767164601 0.01128514155773651 -0.01773065598476102 -0.01580986364510015 0.03832619705170302 
-0.0141889753018967 -0.01984421003783323 -0.008815022679083583 -0.0006197939734373629 0.01223245710575255 0.01243281163523347 
0.0004206264620629283 -0.002137948540944336 -0.03536672282667627 -0.01772306977032098 -0.01507919172214199 -0.002158250125336153 
0.02247389385758713 0.00587281070759579 -0.0375634167316312 -0.004307626175423665 -0.002066786978402446 -0.04476775834831536 
-0.03660149219889776 0.03013488713348818 -0.02696730741781153 0.004306749725726634 -0.002844826218407022 0.004266813910539935 
-0.04669984690090098 -0.03330212635801395 0.05755769507032121 -0.02064177231774647 -0.05698477703258342 0.01381636616161227 
-0.01509441604102564 -0.02800634589185717 0.007741844854132916 -0.01036523847836331 -0.03440214246960723 0.02528734121206799 
0.01888020521727514 -0.01481131443176882 -0.009447908317968585 -0.01096747805932744 -0.005298132077471897 -0.01223588477476308 
0.003298889565199845 -0.01080861256877852 -0.03346561437459261 -0.01973061615490289 -0.02107543691437323 0.04619657249467615 
0.005016438460648969 0.008354548010519712 -0.04772924279426078 -0.001982189901801056 0.05740010964390751 -0.02780601398882931 
0.002247745098374556 0.0080019114518559 -0.009044379685146837 0.002815356273074936 -0.01261348639258996 -0.0001409014260757824 
-0.0160287298549339 0.005302052431731446 -0.01122644075688121 -0.0007558255232070381 -0.02127515530472326 0.007002427457123775 
0.008295362315840245 0.002353633126759111 -0.0122136702677916 -0.007269467235625623 -0.02142314256459986 -0.004530484650728525 
0.04145024252814695 -0.03334594808677309 -0.01585810216416401 0.02275836260478944 -0.0276651923274463 -0.02407042906243466 
-0.03693607274409579 -0.01394290003773187 -0.03958893522390657 -0.002232127705112265 0.0110581062982396 0.01885791629773157 
-0.01011177488186987 0.002660278482786876 -0.0383492064171604 -0.02121266427597478 0.02116430484869336 -0.02250708491676744 
0.01130920617682152 0.01622394432971953 -0.000918208132786514 -0.03012907001006795 -0.03288429058108667 -0.07829706212917448 
0.01073142664159746 0.001089460597158204 -0.007981181537355409 -0.01862780399099426 -0.03684980248172683 -0.03568815666575866 
0.03046671518694676 -0.02099736450231591 0.009196529606371328 -0.01911113954001303 -0.03190891580275818 -0.01484731793820024 
0.04005947610044321 0.007674247440589731 -0.01593546729510908 -0.01096983053370422 -0.03419314415839089 0.004369320249377988 
0.01189267956426114 0.01265368575005853 -0.01823694334372173 -0.01170876153970758 -0.04717240158255463 0.03020139698004574 
-0.03414371630671732 0.02156939659511188 -0.00182150104534387 -0.01236262720881037 -0.02240907111837454 0.01167662502529337 
-0.001553649567420981 -0.003115089054617814 -0.03698582793514776 -0.01411775250877319 0.01667598540451032 0.009247025843791098 
-0.01922831976142686 0.02478918287612302 -0.02538204811471842 -0.004337663731535417 -0.01851671936940455 0.02315105125377756 
-0.01396123233995557 -0.006037183230095627 -0.001108890328104668 -0.002642421932967134 -0.009704322898894242 0.01740952896633917 
0.004960088398868206 -0.0110465320580913 -0.01646700908003919 0.005814019910060261 -0.01556370868224889 0.005868781751849132 
0.03798071086619638 -0.01820010682615323 -0.01801618948383178 -0.02328721135330546 -0.05477972651002046 -0.008053910329246839 
0.04017217645844943 -0.0269970874077429 -0.004130424693068006 -0.03523766223931159 -0.03171427330008098 -0.04664071474702917 
-0.008639169122572867 -0.01299543819472161 0.0001130778782156647 -0.04478453279320135 -0.01688351646110934 -0.06261824821259426 
-0.04056475924164564 0.03833991749514871 -0.03283817270651695 -0.006333155586014085 -0.01423919857461175 0.01419574453021137 
-0.004403509635429881 -0.006464343803516322 -0.02775124137329403 0.0264410025551931 -0.02196915513347261 -0.004269641607684554 
0.05280166048403297 -0.02401171743283906 0.007193170189351904 -0.0251579364179551 -0.0388202645528134 -0.03461170714996908 
-0.003617638054093881 -0.01945367015013023 0.006843573455630652 -0.002803053346253709 -0.07397739475493845 0.03641009863103156 
-0.05368855218663298 0.01174366370843823 -0.003321255027115622 -0.02826703561698557 -0.04215996183802506 0.04360606206895885 
0.04461172305622052 0.01893901702243698 -0.008858289517206885 -0.01858765038426131 -0.06490179840583003 0.003398121278830165 
0.02402596232664654 0.01633719624330698 -0.01173927533542472 -0.0247066282180677 -0.02676865225711217 0.005831973437848232 
0.04595360702206489 -0.01285613285884324 -0.0004610426431410403 -0.01294265126780986 -0.02201979290083142 -0.004382375872012377 
0.01111373018464987 -0.007330832025576336 -0.00425858644096749 -0.03944574913084899 -0.02191777070632671 -0.02956126362407882 
-0.02001266252760371 -0.0407526219022545 -0.01170154626655755 0.0002175321262892832 -0.01385049651838263 -0.01677912755197259 
-0.01374473938104205 -0.01287707635760281 0.013718186621793 -0.03975122476585451 -0.0469742477752044 -0.009883650389483842 
-0.002199303969570828 -0.01210687614675964 -0.0219230986991108 -0.02916650141794933 0.01319447476128576 -0.02576619407979313 
0.05035970993049246 -0.001740931785577149 -0.01058353365033036 -0.01152814561604881 -0.001167225037415293 -0.03475461034095498 
0.03822704531099507 -0.02843590091294888 0.009858631291850717 -0.007984307205664051 -0.02166451160895145 -0.05156507912369925 
0.01249516823116371 -0.03377626039027962 0.0008208206162833062 -0.004732912505482851 -0.03303494295021563 -0.003597206991980054 
-0.0156652076667981 -0.0449661594775658 0.03603777893353873 -0.01555662073346458 -0.04755839061668713 0.01935511025423282 
0.02788908814152234 -0.03010371122504949 -0.005136654360509692 -0.03323336426352753 -0.02662998263029167 -0.04452948252628735 
0.06962667493259619 -0.004343846315438231 -0.01706261697616868 -0.01043270658155706 -0.05555819033150808 -0.01807311776029797 
0.0632260413809428 0.01609906795260844 -0.009603804039206248 -0.02226980633365443 -0.020811413249394 -0.0295652915103279 
0.06594237895381955 -0.01983519077342871 -0.01263343203423689 -0.006198316010759043 -0.03105412367595531 0.003113397182257469 
0.02995386787153395 -0.0255288333154107 0.002099976304447074 -0.008043807568964254 -0.008123573056823886 -0.02894760265234139 
0.02230966015012602 -0.05567764483847104 0.03446097367004753 -0.01841856513635411 -0.05106486769063884 -0.01914087339124295 
0.006468632538351825 -0.01734720290354845 -0.02415141172728488 -0.01319723838882586 -0.01476996254723086 0.001454241182112036 
-0.03922769022241503 0.009777323740039307 -0.01923035044293901 -0.01549184939026295 0.007353758983776561 0.01762906830518464 
0.03523766704050111 0.02091052774766525 -0.01719601242572865 -0.03527021996589699 -0.04533928460626996 0.002940055624258697 
0.02328801809504319 -0.01209336310094376 0.005255649123749679 -0.01426338497467061 -0.04787236624747253 0.01866356388660459 
0.004423819670208698 -0.009711878161105112 -0.03125529978787456 -0.004397927017456167 0.007509108281960917 0.00114720369934716 
-0.03275875720859326 -0.02204866104586882 0.01349605953219898 -0.0135977014283547 -0.01219541203638189 0.00334103209280242 
-0.04318861474856152 0.0003011235975147605 -0.01224837219990247 0.0126043488491659 0.01212813011209066 0.01875428869388046 
0.002848441552064961 0.0002607412310613001 -0.01378506596920569 -0.004164726407547142 -0.004334066396020299 0.01127454733732041 
0.01542576509133567 -0.00596749778851916 -0.01000799345939733 0.007297130290483358 -0.01220670897164204 0.001537419554257378 
0.01659815546451123 -0.008764284256888901 -0.01830857100318754 0.0007415052175501715 -0.01393739345271966 0.01268053311496704 
0.0320711915252412 -0.02016199255796388 -0.03098508294479138 0.006898984591023999 -0.00198100472052335 -0.009555234130065668 
-0.005783958717011773 -0.01159893618116993 0.009798985587244026 0.006991347596325246 -0.0003653960755001246 -0.001185062306564934 
-0.0304193562881642 0.0008497125317271057 -0.01060001206628804 0.001342594287827899 0.006837306089162195 0.01801739314618574 
-0.01273090601604574 -0.01048149668091901 -0.003571036219145794 0.02143967789345308 -0.01005540358886263 0.01331377490123856 
-0.02275950389986796 -0.009760756313631517 -0.01359725158873814 -0.002663065070604956 0.01391396316881821 0.006738042788694433 
0.01607189133045431 -0.01385199099858588 -0.01497894057494845 -0.01055458522533811 -0.0317202263827791 0.05203255560526913 
0 0 0 0 0 0 
0 0 0 0 0 0 
0 0 0 0 0 0 
0 0 0 0 0 0 
0 0 0 0 0 0 
0 0 0 0 0 0 
0 0 0 0 0 0 
0 0 0 0 0 0 
0 0 0 0 0 0 
0 0 0 0 0 0 
0 0 0 0 0 0 
0 0 0 0 0 0 
0 0 0 0 0 0 
0 0 0 0 0 0 
0 0 0 0 0 0 
0 0 0 0 0 0 
0 0 0 0 0 0 
0 0 0 0 0 0 
0 0 0 0 0 0 
0 0 0 0 0 0 
0 0 0 0 0 0 
0 0 0 0 0 0 
0 0 0 0 0 0 
0 0 0 0 0 0 
0 0 0 0 0 0 
0 0 0 0 0 0 
0 0 0 0 0 0 
0 0 0 0 0 0 
0 0 0 0 0 0 
0 0 0 0 0 0 
0 0 0 0 0 0 
0 0 0 0 0 0 
0 0 0 0 0 0 
0 0 0 0 0 0 
0 0 0 0 0 0 
0 0 0 0 0 0 
-0.003802925073471946 -0.004291456149429791 -0.02949166862860958 0.009538984719644639 0.03599517136760379 -0.006703676463246478 
-0.02477958210607676 -0.00524844344011124 -0.01649146416625498 -0.005040383860240848 0.02990781781470938 0.004868866336910919 
0.01559585375123381 -0.007684549725780415 -0.02125544274655217 3.367854926627492e-05 0.02202073692395965 -0.03799389058745552 
0.01159654285479482 -0.008025451758878897 0.008542209966824369 -0.003673171056608859 0.01831861791796126 -0.02484597548995442 
-0.02160111914148244 -0.01720758099354102 0.003442750302200142 -0.0142765845091594 -0.008074335860896877 0.03105577870477673 
0.0532934501483631 -0.00684049110577065 -0.02386165923535364 -0.01811210978196614 -0.0357627033394877 0.01624773503003922 
0.01271400379665229 -0.0001244532902843832 -0.04829340954482888 0.003857633392729596 -0.02884175599060864 -0.007959927206309237 
-0.0179999906621773 0.01625922277094262 -0.004551084778153048 -0.00692774320326315 -0.006779836472131014 0.0006123604408265985 
-0.004543867220423628 -0.003090632687143305 0.0008345087300320193 0.0004096667735848584 0.0008891918663957489 -0.006584950165978693 
0.01043113348063005 0.008039697772558299 -0.0229922895309446 0.0104523149252651 0.0003694290512206523 -0.02704096496888456 
-0.033363623319848 -0.02302734168481047 -0.007617754438505794 -0.001120648418517931 -0.003634319891921187 0.0524424810050424 
-0.01469213903014587 0.01178098255006871 -0.02665947087006042 -0.004708874344512571 0.03232766459212577 0.002387322475488088 
0.02436156265495236 -0.04595780720070703 -0.03788721587533659 0.007147661273525179 -0.007426038906989224 0.04462553266336081 
-0.04074766546646608 -0.005556806481138352 -0.03746122289625972 -0.02422573792206848 0.0264807830859501 0.04272828711771113 
0.00334401475884703 -0.001952150196293954 -0.02421371583808795 -0.001205755719384069 0.03698657261662042 -0.03432357656185549 
-0.0468081706991372 -0.008131155142110781 -0.02360713331953603 0.002195897169449801 0.05581265337332461 0.00387449159934248 
-0.02088496693085221 -0.04205084557845375 -0.00501110729304483 -0.01021451935270064 -0.007578758187109972 0.01539864678609587 
0.01847093348625025 -0.03528692281255917 -0.007365308412146527 -0.02323239080991403 0.00407986195452379 -0.03019865394062514 
0.008663507233334235 -0.005909157576351486 -0.03394435320916098 -0.0005745789055603674 0.03311482020209465 -0.03433187761967181 
0.0149131348354973 0.01705396710830337 -0.03242772781649648 -0.01376077236686303 -0.0161321737221065 -0.02154892509804251 
-0.01877384416311918 -0.02556787529651364 0.007044126182040324 -0.007392482933742498 -0.01731996360730068 -0.004837384006595753 
-0.01448424331176871 -0.002862633023430883 -0.013748195617811 -0.00404019662827554 -0.04949940997097929 0.003569845080264241 
0.01197969446052488 -0.04808260047860685 -0.003519764181533584 -0.01024075216896982 -0.02041678933677665 -0.0008004996680859599 
-0.0139757634145806 -0.04312225157181581 -0.03856062807347347 0.006732242726153394 -0.009075871998334394 0.08181882963110826 
0.01261402564894193 -0.02103008577397709 -0.02721777172433122 -0.006143684159677343 0.02433053156828745 -0.004698775187414642 
-0.0007062039068835521 0.01659962981840684 -0.008476612095177076 -0.004267164258313183 -0.003352470263607526 -0.02135251867728166 
-0.01437294909178979 -0.0270461044291423 -0.01333852486131495 -0.01436845689236474 -0.001025330340360486 -0.01957597999034125 
-0.05439247935754862 -0.03797270971452518 -0.0167243875129592 -0.01069120754033693 0.01803884607404942 0.009306011462596468 
-0.03934713555958062 -0.04158432211518589 0.003150672739285519 -0.002930757880438365 0.01188525311474935 0.02393442639227513 
0.05727199658115212 -0.02379413891048421 -0.02759078015027383 0.01166432373169708 0.008281893890725459 -0.03072110893006837 
0.01784877940613657 0.006583194649724067 -0.02941758357313921 0.0006649240861606452 -0.02322494316269295 -0.02326201632146 
-0.04506589126441803 0.009702142074770079 -0.02480360172792749 -0.01809462067611555 -0.03358936362301099 0.01668817512824699 
-0.02470086266349435 -0.009401502195646821 -0.018578643962519 -0.03120501983370273 0.02147999166974154 -0.01182535958126869 
0.03874428690210995 0.003783493980756281 -0.04958416272754074 -0.007422518176459809 0.005883738658541551 -0.05276787441609275 
-0.0439588420027059 -0.04518319864617946 0.02083636702623781 -0.004111637035402606 0.007252518677525054 -0.01922553851959066 
0.009285967165017967 -0.05346684270047763 -0.0230473111328176 -0.0242021379334278 0.02865785790258724 -0.02246425675798032 
-0.01967523655303789 -0.006321211167253312 -0.02683150744434562 -0.008364120844289667 -0.02714734479148707 0.03453307741287033 
-0.08107659362266355 0.006247855013484919 0.01792451942041559 -0.008949980154449744 -0.01844218528537491 -0.01066830958656284 
-0.07043598270516724 -0.02109997654383559 -0.03258209827978442 -0.04016183662224468 0.0690362293574879 -0.03513961381252087 
-0.03253485114584332 -0.007518360604033264 -0.01157075282099166 -0.0392267427535021 -0.007804944604639417 0.003073371906970494 
-0.04811699638999144 -0.01956225608363786 0.01229073638531789 -0.01201002189304237 -0.01516012395592457 0.01759537077458843 
0.01316805896068148 -0.0136640432455727 -0.01158642185600718 0.005645344593298673 0.003753024057419442 0.007545431863601214 
-0.01721497681138834 -0.03328666567897941 -0.01816227050865678 0.01382315941785028 -0.001790165101132308 -0.01576530263656276 
-0.04177309435905392 -0.04238389773118061 -0.01056298058659697 -0.008716825615111974 -0.002643645625554866 -0.007764427242864537 
0.05410964926606963 -0.0005513286492950278 -0.04744057864983654 -0.01610302161463603 0.005552474288629252 -0.05099469678376365 
0.01895479612061652 0.01292090348712041 -0.03685211165408314 -0.01846205766950106 -0.006183070137748217 -0.02077283051041681 
-0.03995112624695149 0.04477926060441743 -0.007030585830155809 -0.02327847719954283 -0.01383342966402031 0.004117758648886334 
6.124351541086404e-05 0.007916017288573982 -0.05849699452570391 0.01083672217655375 -0.03772996932404372 0.02016209218570931 
0.01066772996818452 -0.03545651059036642 -0.01260823382094896 -0.01014813168781064 -0.00673300108097942 -0.02915641341760038 
-0.03455166334222599 -0.03571237770745211 0.04024463912433497 -0.0444535178085267 -0.007240828444764267 -0.02223567088163369 
-0.03638257580574907 -0.04252014017448396 -0.04109132038817538 -0.02483223896611702 0.0485801431686881 -0.002993190054562331 
-0.01045486420449015 -0.01213079403867532 -0.02110145858277792 -0.02514770706887264 0.03538132728524453 0.01381212670301235 
0.01628726152804792 0.002663253376467473 -0.006603550562643242 -0.02226838811949939 -0.0527254829047565 0.002159375424798968 
0.02870225312291771 0.005524524833357755 -0.00972377470197449 -0.01000939578173943 -0.02209975201369775 -0.008598840282403309 
0.03125588708633569 -0.01920787548347654 -0.009715533250350272 0.01307926319179869 -0.03160018937612958 -0.03199620707157419 
-0.006026103715929111 -0.03247229426819088 0.03031805535711569 -0.01687383945822492 -0.03884051977608631 -0.02164820556390112 
-0.002838045817790995 0.005276593365133721 -0.03317759918700754 -0.01631584081826584 0.004120898309582686 0.01771108966691599 
0.001173230951435523 -0.0263685177104018 -0.006746145384581089 -0.02771711427794991 0.02590351893405883 -0.05904165606937202 
-0.003435707503210344 0.02522482360410938 -0.005285522011538177 -0.02578035492542958 -0.05460205095425978 -0.04448452064238338 
0.02669184192688557 -0.01801340668311779 -0.01222074956928479 -0.00655274042019657 -0.03132314042733833 -0.03763945126371549 
0.01535243181217855 -0.03930000327476978 -0.03622754358331123 0.02356220388833757 -0.02964948306805263 0.006412028477850454 
0.002310685338671179 -0.03941977885479479 0.03119808628174885 -0.02962570815212203 -0.05567185859245422 0.004400457036143154 
-0.05704074951840785 0.002368867128271307 -0.05481551978189361 -0.01495503674459464 0.04163095571365941 0.05290211990758402 
-0.02844092953751278 -0.001683788259567472 -0.03747205200804021 -0.02280635472316927 0.04277908379294824 0.01848836996004907 
0.02118783884853903 0.03003712803797488 -0.01373904203059206 -0.01918580051809663 -0.01288410589494231 -0.0197253754900435 
0.0424864677151644 -0.0135544780120442 -0.01458866675422298 -0.001747160112873491 0.004715568127569793 -0.03594042656196104 
0.1042239604778019 -0.002730937589953527 -0.01893185091660461 0.008163362409989529 -0.03488781809541063 -0.0503948437777854 
0.04101916614515149 0.007580427799244581 -0.01221423533094812 -0.01158058827666748 -0.0314922479660202 0.005560018609329906 
0.01241219696668764 -0.002292879509920218 -0.04543042527301137 -0.01269043101028049 0.03567625979163948 -0.006943806115823363 
-0.04474669861859956 -0.01836600061655303 -0.009372664980522527 -0.03990003287365425 -0.01059158178011618 -0.003070419201084372 
-0.009591098164359312 0.01225184393893335 -0.00943991233224863 -0.02591119727420702 -0.03476675991519651 0.0204706051933965 
0.03142789880077201 -0.01101934736537195 -0.01519739792707208 -0.004575906124733591 -0.02240150795470667 0.01617428329887726 
-0.003593728023085424 0.001831973217547397 -0.02599246037360303 -0.007569290072764768 0.03480444347371932 -0.01700852275397934 
0.01998058287450379 0.002005469772435742 -0.0131741123967477 0.001822406244930803 -0.00258264359300453 -0.03441152453984852 
-0.03578819861838779 0.006037764378945663 -0.01856456722514575 0.007580479849394426 0.02246625959709465 0.02504803414518297 
-0.04156573569225144 -0.009133848418160001 -0.02079042905560687 -0.004635577797651311 0.02759786098118225 0.03174187302522728 
0.008323652612987596 -0.008665773887007091 -0.01998525998617919 -0.006340961127540958 0.00761627267765633 -0.0006920727196376357 
-0.009223963093158122 -0.009842658585953712 -0.03224998314061768 -0.003630075309082324 -0.006747779556929294 0.06855315681352181 
-0.02390328121517398 -0.02477762812344105 -0.04195969553093393 -1.944213348044314e-05 0.02565332073005329 0.03036234179090155 
0.01571020341379005 -0.007593664440753588 -0.0187093140224962 0.003913805227052114 0.006944478303356282 0.002634109811373596 
-0.02231002285999257 0.003371427498794582 -0.005711236693431573 0.0005581729081767575 0.003136652486720196 0.02064775588473851 
-0.006504342739965657 -0.0005029737484639011 -0.00853795748297731 0.01430643197626396 -0.011645785462568 0.02063562270490465 
-0.01620203893644164 0.0204592339415059 0.01704088847046636 -0.01465575955856916 -0.0056325532374419 -0.009853599113580212 
0.002794244804793285 0.01994232865242367 -0.005216419807517847 -0.01089995440832332 -0.004209595267825766 -0.006149063904532152 
0 0 0 0 0 0 
0 0 0 0 0 0 
0 0 0 0 0 0 
0 0 0 0 0 0 
0 0 0 0 0 0 
0 0 0 0 0 0 
0 0 0 0 0 0 
0 0 0 0 0 0 
0 0 0 0 0 0 
0 0 0 0 0 0 
0 0 0 0 0 0 
0 0 0 0 0 0 
0 0 0 0 0 0 
0 0 0 0 0 0 
0 0 0 0 0 0 
0 0 0 0 0 0 
0 0 0 0 0 0 
0 0 0 0 0 0 
0 0 0 0 0 0 
0 0 0 0 0 0 
0 0 0 0 0 0 
0 0 0 0 0 0 
0 0 0 0 0 0 
0 0 0 0 0 0 
0 0 0 0 0 0 
0 0 0 0 0 0 
0 0 0 0 0 0 
0 0 0 0 0 0 
0 0 0 0 0 0 
0 0 0 0 0 0 
0 0 0 0 0 0 
0 0 0 0 0 0 
0 0 0 0 0 0 
0 0 0 0 0 0 
0 0 0 0 0 0 
0 0 0 0 0 0 
-0.03828282140753226 -0.007615364603658531 -0.03070831635639515 -0.004390275069811163 0.03329733107453276 0.03068165695701065 
-0.03384910165647251 0.008275885923886703 0.004616447165070666 -0.008678640486360112 -0.003296741477782643 0.02272232832971534 
-0.04771002992220984 0.02365047827660517 0.001842896147069086 -0.01386339415421593 -0.005746852125303369 -0.02487269093052124 
-0.01014911969461478 -0.01392801083063746 0.0005430634360080264 -0.001937018731660514 0.005147399758141421 0.00884399637657105 
0.01934566006913768 -0.01330089609059685 0.01197736764178119 -0.008513034820222211 -0.02327507314048845 -0.007837990702487066 
-0.01288953443330732 -0.005021808709453501 -0.01366250351778106 -0.00360532009807188 -0.02570845929291064 0.04595483874203259 
-0.0419287988090523 0.02026290002173346 0.005344994752885721 0.01056343558683754 -0.04102771693299376 -0.005464335091990516 
-0.03681496471925418 -0.002094397814474377 0.00815873056221747 -0.01950486578310857 -0.00953034819597322 -0.005598227810234927 
-0.007214729829218498 -0.004497030091481359 0.008277800294014913 0.006535817627226953 -0.02952095472354858 0.03482914114126072 
-0.01151326457696719 0.0105491004241208 -0.01780495295840413 0.02290995626134529 0.007220043544051554 0.007791044799785216 
0.03427816569121663 -9.462617382711185e-06 -0.02332633986561377 0.006119966938524722 -0.02181359562255163 0.01440579451139946 
0.01678211941071072 -0.01683052456458631 -0.02213405599468471 0.002320437062039504 0.0276210520136472 0.01127680748251818 
-0.006290437244693763 -0.03559087352372411 -0.03215258696632552 0.01391665790759822 0.01068120616726457 0.04496741198297063 
-0.01249453030848448 -0.02496285009516455 0.02292821955344092 -0.01645165662940003 -0.03743613862439623 0.009240403521054678 
-0.02994487549237023 -0.01271716894712431 0.003419848209525587 -0.0144458612515439 -0.01118646421273596 -0.02029782854592082 
0.003102976802564141 -0.008380013295043988 -0.03595700576665797 0.00178876456736921 0.01550117460996735 0.01010378130909968 
0.03669365651189997 -0.02623635929153248 -0.0134746436808768 -0.007559945574180345 -0.03370317157563451 0.02332027467985383 
0.007416548293085369 -0.0180550943142036 -0.02254438583417119 0.01063160872528971 -0.01033071298749328 0.0132196640930925 
-0.03485962847007761 -0.01388073282446321 -0.0349904790341368 -0.0001183379701437913 0.02754972278233899 0.006200169783891907 
-0.06097824530133311 0.005662465287862643 -0.008435128248682236 -0.02320440313342608 -0.03369531123310999 0.07174258538139611 
0.02076831374291273 0.00289930683484357 -0.02135529620043856 -0.0002450243048430572 -0.01844125159967612 -0.002622014554826737 
0.03400487480187007 0.01478061411819588 -0.03016693136578897 -0.006952408123508946 0.05333069949467015 -0.09224428002096566 
-0.05371240137910779 -0.01567926395042887 -0.02904284050478243 0.01591789671526084 0.04602813703074939 0.02051862851853942 
0.02017972735839171 -0.03369900758252724 -0.01903847353543232 0.004812032766087405 0.002849931960614998 0.03684983848254089 
-0.008409431257141602 -0.001108510357498441 -0.028990810587703 -0.01228485642948138 0.03152596990497352 -0.002659644327179349 
0.006330433260032241 -0.01145107790547427 -0.0111087953026783 0.02747215599798187 -0.009322033938553584 -0.02594063086604743 
0.04410126312009708 -0.0314093377268413 -0.01303213329374955 -0.01386530433895206 -0.01659739534800221 -0.04629660977941771 
-0.03910360505894539 -0.01290857937197095 -0.03669671976805922 -0.01057563788569988 0.006253939682162813 0.04256503007770653 
-0.03373431673286401 0.01345876593570874 -0.0006950717991337776 -0.02034972503588751 -0.01481828163614729 -0.01295231320762637 
-0.005583773473977764 0.0155291475176314 -0.01303358723812622 -0.01801074836550874 0.001122286867417058 -0.02812572643161648 
-0.01869830945937279 0.00413036862260297 -0.05047362989074438 0.02257383033047863 0.0128357270758223 -0.02066953071896502 
-0.01783467611030776 -0.02535094565797477 0.03707948067054487 -0.03053683520195678 -0.02831825026601016 -0.01942144697439346 
0.02472095173814035 -0.01018969822330683 -0.03987946371773664 0.003655327922496745 -0.02759545706506698 0.03057934174503494 
-0.004713126368444153 -0.01134779498150522 -0.03654496451113923 -0.001695695024985451 -0.02178923024594047 0.02304076011675832 
-0.02815359172317931 -0.02531853000879283 0.01483991641147809 -0.01367613884451746 -0.02061047477654628 -0.02114047080145768 
-0.01239927892913449 -0.01100555754110687 -0.02145837173250588 -0.005091586591887287 0.03450464314478986 -0.04184870273169771 
0.01960009166383802 0.02146786203958817 -0.01880701327992879 9.702570702694257e-05 -0.03301445325235937 -0.01076784931861767 
-0.01798472666826708 0.001440093518487845 0.02469052027835702 -0.01830569365990963 -0.02873974655798121 -0.03801354822594002 
0.007681018558556079 -0.01071573422164597 -0.03798963098219724 -0.006750437831916702 0.04517546098456224 -0.03755858455829946 
0.09923491030042708 -0.01522817911802419 -0.03978262290251881 -0.01525920357464938 -0.06864560648167431 -0.005235412396920725 
0.01944086552138635 -0.005837640742730192 0.004286237142172183 -0.002191685117192803 -0.04309045482762054 -0.003274093524374202 
0.0448616289234554 -0.02310439599081929 -0.01452860544197581 0.01373307872907501 -0.02161865658297148 -0.008616734955270763 
-0.009535142556744305 -0.02899182551387042 -0.01435684141520034 0.005796102105744498 -0.0008269271718463596 -0.04531359518139293 
-0.05940600931016721 -0.006393364453213362 0.02387307589995767 -0.00622305762067819 -0.03268343364870957 -0.02701376632512981 
-0.03287743342404314 0.005008795688434484 -0.027928746738232 -0.0005705426798448029 -0.003959381326581544 0.04087351719152307 
-0.04820438964645359 0.01643348369588713 -0.05236158996615819 -0.02346008239029691 0.00510712335237803 0.04066679072729624 
-0.00129795823632057 0.04322452522228667 -0.02632465016136395 -0.02465007648518754 -0.0527962427021539 -0.005953936896665038 
-0.000593067652068235 0.02563108527538089 -0.04341471217007375 0.004936951236340988 -0.02755031938494951 -0.008082966153401734 
0.03601156608990673 -0.01585249925044327 -0.03398164190482202 0.02145149640308446 -0.02295057900097289 -0.02960615046001724 
-0.007933591412211644 -0.03906261652373925 0.02335414035719089 -0.03337501958256218 -0.04067348410699358 -0.0174791831383022 
0.05545347021395238 -0.01097908717705117 -0.02337283490055995 -0.02824552923247531 -0.003124993474446455 -0.05224209969118053 
0.04815649427411022 -0.005544639526084158 -0.04531756748130278 -0.008721786245158854 -0.03003351020935677 0.007021745976913389 
0.01601778060306268 -0.001753681696399349 -0.005228046809640402 0.003176582729909587 -0.01461665388720083 0.002641923828443289 
-0.007898453758329241 0.0108548551107134 -0.02433044698410441 0.01619030132657773 -0.01094539314452803 0.01234080238380188 
-0.03202166446957565 0.01491317007258165 -0.03564877732262259 -0.001916712924713227 0.01904399028060761 -0.02009105020918744 
0.01196991654378632 -0.01259992015827305 -0.006733207419845027 -0.0110935113226673 -0.02951043881694 0.01707306385614256 
0.06091910520248427 -0.01144622669119261 -0.02402704506458965 -0.002508983568142701 -0.04326424968831676 0.01355809605801064 
-0.04013711803229827 -0.0191847218910303 -0.02407866299950107 -0.02109142773859837 -0.01149140085760728 0.06546348651489312 
0.02251232379235735 -0.005893938367053748 -0.01157763173059703 -0.009066290706631208 -0.01817823942671477 0.0008905492564193631 
0.03221464135434703 -0.03853606832974506 -0.03663280451288455 0.05149971403707945 -0.03165659199823458 -0.02363245727033465 
0.01392916383349406 -0.02892785943166892 -0.02786693046533303 0.02465459403481096 -0.02514788014683128 0.02939247463431178 
0.01179548587208962 -0.02357359786271486 -0.002781369064527583 0.001311623754707311 -0.04074379366724104 0.007816635832684913 
-0.0274673825553674 0.006379438192497346 -0.01896513093077777 -0.01472173093828097 0.009613262278689146 -0.02169338581019367 
-0.02931185027695577 -0.0195078089606985 -0.002824034392243903 -0.02347408658903188 -0.01584507372474083 0.02643628505107349 
-0.004297605067734292 0.0002409156206558563 0.0250259265410988 -0.01333496827719816 -0.03654728002097898 -0.01300072201252991 
0.05877086474531253 -0.02323009871041745 -0.009755257785798704 0.002015970196028006 -0.02021614811830846 -0.00799639328958549 
0.0468505189040738 -0.03579303076368099 -0.03402579993987587 0.01824346649141873 -9.342702211309397e-05 -0.03346081251653107 
0.08816547127263234 -0.002655793218895022 -0.01292719106409615 -0.001474754538629338 -0.04164378921006711 -0.03276240952766797 
0.04297082883756644 -0.004182251848256433 -0.01940290389172542 -0.01066787188574469 -0.009442712553916143 -0.01657759019383737 
-0.002127720873306175 -0.01994608995618115 -0.04135049273017771 -0.004833485311175619 -0.0214172561256409 0.04317560444385662 
-0.004044642513413959 0.01242152740134563 0.005238471804312007 -0.01198204169118726 -0.03254973375540324 -0.004237263156267967 
0.003945666799284489 -0.01242356821783708 -0.01142202952852157 0.002084904382563486 -0.02294499481758438 0.0436316735515826 
0.04925410194563665 -0.02168345637010997 0.01027928435194167 -0.02677519910166756 -0.02984735393563211 -0.006484051086087675 
-0.01590176869478203 0.004853443742160219 0.007043457996229084 -0.005118496505196566 -0.007987766126027102 0.008463540935438701 
-0.03099852054984176 0.01206544634177648 -0.01341492986799589 0.001213909124631488 0.01795774590227559 -0.01124694293355204 
-0.01943825910600524 0.01221476853722195 0.005999423678170991 -0.007237299693082042 -0.004116406305855884 -0.003727696543699161 
-0.02259850281840831 0.003168379985104833 -0.01547363633054308 0.00177276864385453 0.01992740009564661 -0.002339009543405374 
-0.001797716664041348 -0.02369149381924077 -0.02053374285903945 -0.002411830428750838 -0.02035476967131706 0.06316085078517829 
-0.02058090221828189 -0.01101732067311031 -0.03795888676821211 -0.00645778925743116 -0.03647622668267948 0.0633368559065923 
0.01723854106817099 -0.008473012009337607 -0.00648301160018396 -0.0007838308790970154 -0.02044064229838984 0.0162047491901794 
-0.04639860487869007 -0.006975902048605871 -0.007533810119063778 -0.001979306589088578 0.03343443711705629 0.01695233561112993 
-0.03919986439131166 -0.003940364594704815 0.01834357470875464 0.003259275597632201 -0.01457621943911194 -0.01216442232665061 
-0.02996829209701466 0.01032266014076146 0.003340086086377686 -0.01346774580679243 -0.02274733216157981 -0.003617975550000661 
0.03045046725348847 -0.02163882672928023 0.004069420644850958 -0.005263993855260205 -0.02292849492847167 -0.00861026054058499 
0 0 0 0 0 0 
0 0 0 0 0 0 
0 0 0 0 0 0 
0 0 0 0 0 0 
0 0 0 0 0 0 
0 0 0 0 0 0 
0 0 0 0 0 0 
0 0 0 0 0 0 
0 0 0 0 0 0 
0 0 0 0 0 0 
0 0 0 0 0 0 
0 0 0 0 0 0 
0 0 0 0 0 0 
0 0 0 0 0 0 
0 0 0 0 0 0 
0 0 0 0 0 0 
0 0 0 0 0 0 
0 0 0 0 0 0 
0 0 0 0 0 0 
0 0 0 0 0 0 
0 0 0 0 0 0 
0 0 0 0 0 0 
0 0 0 0 0 0 
0 0 0 0 0 0 
0 0 0 0 0 0 
0 0 0 0 0 0 
0 0 0 0 0 0 
0 0 0 0 0 0 
0 0 0 0 0 0 
0 0 0 0 0 0 
0 0 0 0 0 0 
0 0 0 0 0 0 
0 0 0 0 0 0 
0 0 0 0 0 0 
0 0 0 0 0 0 
0 0 0 0 0 0 
-0.003348222477255483 0.003917034663813631 -0.003054757874187801 0.003880274282023257 -0.00505699971421216 0.001499792551080691 
-0.01761519268383337 0.01416191061093547 -0.003653440418662197 0.005079236288628721 -0.002315758822247542 -0.002586598289412995 
-0.01686007190150506 0.00546935340195432 0.001187201169278338 0.002568779153581049 0.01570404382183991 -0.01377314298546802 
0.000399606676345681 -0.02641583612623857 0.002625805771805892 0.001194415603279631 0.01145613412461998 0.01096735277351506 
-0.002245236939564477 0.01089574250383036 0.0002116316475274734 -0.005569002174835486 -0.002250131653572922 0.0006328673720855595 
0.02574838447511656 0.02531654300747377 -0.001984767687973779 -0.009502525651538677 -0.006407081877582983 0.005944591418279735 
0.009560502551674607 0.002382726241033621 -0.001042603454743282 -0.001627815350203795 0.0004212297620265041 -0.01960994225060849 
-0.01207381012071291 0.001903351483912252 0.006357922272461728 -0.004302413110823239 -0.006757160227819021 -0.004377664353850059 
0.00317964607045194 -0.009921896721853401 0.005454952704257369 0.003820516230678857 -0.004476794965025959 0.006446047619022287 
-0.01498941132984111 0.002758014012594195 0.004991852864069453 0.01505516983910834 -0.002840860468473484 -0.01294554359034207 
-0.009566672548801718 0.01020117685787713 0.003327906408424528 0.0101157307589599 -0.01574938753855737 -0.002253329510804792 
-0.01210204109332453 0.01461507938860183 0.0009392069471136752 -0.003988254932366054 -0.0004633160889904495 -0.000923044423700929 
0.0008026995222891891 0.009728175092503609 -0.00657780216739265 -0.002830184672476019 -0.009851863484611771 0.01217524238108647 
-0.01780402360458723 -0.002881952979569988 0.01553850368637638 0.01453436812101013 -0.01386467007805759 0.0184815704980276 
-0.01674670277574777 0.02125685873794613 -0.01566740600847787 -0.01752170715154426 -0.01477380738518246 0.01859021799331347 
-0.02471904528518829 0.01470556694253796 -0.02018156363603794 -0.004550801065307187 0.004672649914544659 0.01272116796627844 
-0.02105344083594412 0.0136211609777359 0.007294179430363091 0.0007425849462400395 -0.01246729068208649 0.003303615277443392 
-0.03076101696911287 -0.01639970450968455 -0.01053802223551996 0.005152736251968133 -0.01472268080590273 0.02906670475868618 
-0.02152578702119355 4.558167022491244e-05 -0.007033778481311283 0.00120107690247422 -0.01274552331713845 0.002576791737806781 
-0.0239469608671867 -0.010441735819714 0.01726914969426132 -0.01354659362315035 -0.04160273885754509 -0.009952811699046289 
0.00803896943987676 0.0289269651569238 0.004434265036531486 -0.0008075262505327058 -0.02600140555037883 -0.002065416418424023 
0.0145686922772138 -0.0009652624342109579 -0.03663627835968951 -0.003681732759404682 0.06233913005888517 -0.03682748975344412 
0.03807557946962344 0.004946379236408579 -0.02586422431976811 0.02113742609806309 -0.001653210573010442 -0.001916724801874951 
0.009940824312729081 0.004830168231859329 -0.004835337950816661 0.00455100254837658 -0.001700632575472543 0.001805767955687075 
-0.02345729558790859 0.001525774025123117 -0.03100741200688759 0.0162203654346289 -0.004029526418084011 0.01936025363893608 
-0.04797371899842336 0.009228689491536515 0.01718253904257889 -0.02393421962904729 -0.02594440278496945 -0.005716445114949991 
0.003497377056808598 0.003242730043708986 -0.01719065296629272 -0.00892276299157777 -0.02375111401948349 0.0309273863861151 
0.00631968580475219 0.007178880205021321 -0.02383875238187682 0.001954521395423545 0.01077672845334768 -0.02334255053093322 
-0.01978867244014873 -0.001965739043144664 -1.174445836125754e-05 0.004621115192604539 -0.03236026682593104 -0.005997671411009388 
-0.02361188285828376 0.0122325522927017 0.009671959213635561 -0.01993448697513218 -0.02395814214513778 -0.01656911154004979 
-0.04037035322743867 0.01563418327847179 -0.03033671395878496 0.01146389277742283 -0.01048084296643632 -0.009575774703835725 
-0.04660193007600395 -0.03464421464739258 0.02362311085994853 -0.0008690083574705461 -0.005687473740108528 -0.03996073703258018 
0.01370694300483537 0.05062623495670349 -0.01957739499050744 9.760236698458296e-05 -0.009017573700031083 -0.02437775423360232 
0.01560253136618266 0.005809771664618038 -0.04436145773852523 -0.007950390880233978 0.01879607946293579 -0.01588720505359601 
0.03076832532041018 -0.0148857169408643 0.003397687737850891 -0.0188302443630923 -0.01095340003889763 -0.007271934957767864 
0.01984309444997262 0.0003005460335185778 -0.0163180173813045 -0.002905928118178659 -0.004453886907183664 -0.003370630538706879 
-0.02156156796060757 0.02174582883317069 -0.006094030171861674 0.001200744820582179 -0.01704652771238904 -0.01176853006466715 
-0.04997410074500906 0.01399738626731297 0.01606655688009757 -0.05247343561937837 -0.04767437173142035 -0.01797681187872307 
-0.01561030745459336 0.01953010958815362 -0.01676483712117596 -0.001102158895205118 0.03530723218302263 -0.009364620289688418 
0.003801700980021332 0.01307948599954669 -0.0241437345076023 -0.01207845730417226 -0.004839356730873651 0.006285222770597945 
0.007113891287449004 0.02728739464406766 -0.0184059170056355 -0.01425446221116594 -0.03407686072959817 -0.01007053535251885 
-0.01890394711421423 0.002424552234107976 -0.02317645390402612 0.0212502803966578 -0.01824457938892935 0.02090119505941317 
-0.04332080405047491 -0.01305952499691952 -0.02142962652842022 0.03132912086826647 -0.04431409738129516 0.02395064748781364 
-0.02059202654148007 -0.008714596618907257 0.01198126182863309 -0.005968226721416971 -0.02799189462536332 -0.02158335765734525 
0.001700404449319344 0.009703906139457617 -0.04020703228161408 -0.003248344072392864 -0.01179116954114698 0.0193723894563898 
0.002709606995455046 -0.01185564570528653 -0.03243998455094831 -0.009284887657109525 0.05861998541237671 -0.0551510467904313 
-0.04332825548843658 0.01210102839809897 0.02184768276617042 -0.0327133861868467 -0.02942265826435207 -0.03411822360617583 
-0.03256990900416765 0.01928427802106242 0.003722979340663763 -0.01251307890848409 -0.01699540830494965 -0.02293719722615433 
-0.02197837929843958 -0.02213624479720349 -0.0371238669740321 0.05467597642134261 -0.01181837484218774 -0.009413870404855329 
-0.01118247498137847 -0.01091415840923327 0.01665163843606646 -0.003842226711466641 -0.02084691395710889 -0.02793011027269729 
0.0222880867588366 0.005586114619978275 -0.01889986654633325 -0.01838763048505186 -0.0212728201820166 0.006804406272952353 
0.03909275604600385 0.03282318949532644 -0.02784336568405169 -0.01483510962812933 -0.01573109532181053 -0.01830872427931194 
0.01445528003825015 0.01859639876200582 0.009728473791816067 -0.01016519827976827 -0.02306857891674543 -0.0149549158499975 
-0.02171795510407601 0.01978485133825614 -0.001583898788312001 -0.008955362094681349 -0.01441157086483705 0.01472765950466159 
-0.006112531339613342 -0.0001924471072098967 -0.02597404640614706 0.01259482019869164 -0.02601675220788066 0.03429762019551823 
-0.01668957626348432 0.018590556212533 -0.008030119622321415 0.005914869351439439 -0.003166753521426847 0.008781504898503179 
-0.0001141287260445761 0.02130973571109024 -0.01023163653580462 -0.009401754356857826 -0.004873380203134001 -0.006917151119936887 
-0.00746631674852925 0.02651380098393727 -0.01771322663055803 -0.04091414197309819 -0.00372970288271686 -0.009404214974765407 
-0.0006743722985976967 0.01736548223427784 0.01160139746418257 -0.001370651619235264 -0.0130358565742059 -0.009751805895378531 
-0.00718321456630681 -0.01930452852578837 -0.02852621700007051 0.0395239649846334 -0.009222968807471012 -0.006897956803609741 
0.0217697143058888 -0.01708937652416804 -0.01652901524779989 0.02405872526402113 -0.01152808203231226 0.01779660667507123 
0.006980073032069697 0.0256378133879109 -0.01492628671110136 0.009810085588821869 -0.008020842224754937 -0.01877563724797062 
0.01655637174268204 -0.02192268853161791 -0.007456554441145033 -0.005913474878738437 -0.006954549088301709 0.001033096107267187 
0.01511987938721975 -0.001794011123903547 -0.004031888735100808 -0.0002794220928933535 -0.01868085951122644 -0.0007711118023147666 
0.02982054801315776 0.01069737598013001 0.00176867226111398 -0.001809183944271236 -0.0280485020332323 -0.01294882066719421 
0.02144277731623628 7.658529555246557e-05 -0.007049391417463016 0.001182070040726685 -0.009499168615306397 0.005347462808746583 
0.02479166012674792 -0.01052556463205514 0.001037043248133596 0.0130747917811016 -0.008788134565074244 -0.003708120559825449 
0.01533428411962962 0.004707445948955538 0.004227343171206026 0.00594219717986064 -0.007230498255655122 -0.01008373480706088 
-0.003733180445210653 0.01655745347248519 -0.001514408405120334 -0.007091582539330408 0.001691544375696196 -0.001959821586409665 
-0.008256767020848122 0.01097345939463998 -0.03013142949347582 0.002936897225541271 0.006842299406296796 0.01479028656750481 
0.02100612753124111 0.0007144752427627213 -0.005030160052045957 -0.0006060766585144622 -0.01629853397473851 0.009815925240616133 
-0.007133411663319284 -0.006056996019242984 -0.009717012599761692 0.005206685001024847 -0.008753556006431278 0.03118136333943594 
0.04573563088026381 -0.01703917962090016 -0.01135419804594483 -0.006233348149664448 -0.01603971847399006 0.03450219158194642 
0.01268212849294956 0.01115832115950432 -0.005764520899030326 -0.00308974420189259 -0.005325519489490794 -0.0241497622584971 
-0.02486190060994648 -0.005869312185586941 0.006584761154823589 -0.001184883219115544 0.01067237545681302 0.01292172399403739 
-0.004658951096804241 -0.002047375827002239 -0.001448924088605142 -0.001055394679749892 -0.003189743156992499 0.01114890122242059 
-0.0003986757564918469 -0.01290262845286028 0.007154515402916017 0.008498689047785109 0.003798812813208799 -0.0003904659136562267 
0.002413749356634257 0.008205624335970519 0.002961072018936881 0.003195332153669169 -0.01033761899850147 -0.001373274505102717 
0.02176683485253844 0.01074084126485126 -0.01768642203274854 -0.01677712948705683 -0.001412000967758493 -0.007519102249360703 
-0.00831105971460201 0.004468105810994355 -0.0008948607847752376 0.005545011690214241 -0.008466640467602732 0.001607268438236444 
-0.00836745143649731 0.001812063245351893 -0.008266744054429188 0.001843462172939535 0.009808945230817701 0.0003635131276399472 
-0.02608285203465266 0.005648516503778286 -0.01495925054235665 0.0065793319408872 0.02897008067548259 0.001849099678262623 
-0.01854639840561146 0.002041804152342639 0.00222301463366505 0.003772029097281072 -0.007489732609877764 0.003090149730920429 
-0.005794228629867411 -0.002037402029597953 0.002843536639887734 -0.0008313379394685017 -0.005009121232261605 0.0204865145564854 
0 0 0 0 0 0 
0 0 0 0 0 0 
0 0 0 0 0 0 
0 0 0 0 0 0 
0 0 0 0 0 0 
0 0 0 0 0 0 
0 0 0 0 0 0 
0 0 0 0 0 0 
0 0 0 0 0 0 
0 0 0 0 0 0 
0 0 0 0 0 0 
0 0 0 0 0 0 
0 0 0 0 0 0 
0 0 0 0 0 0 
0 0 0 0 0 0 
0 0 0 0 0 0 
0 0 0 0 0 0 
0 0 0 0 0 0 
0 0 0 0 0 0 
0 0 0 0 0 0 
0 0 0 0 0 0 
0 0 0 0 0 0 
0 0 0 0 0 0 
0 0 0 0 0 0 
0 0 0 0 0 0 
0 0 0 0 0 0 
0 0 0 0 0 0 
0 0 0 0 0 0 
0 0 0 0 0 0 
0 0 0 0 0 0 
0 0 0 0 0 0 
0 0 0 0 0 0 
0 0 0 0 0 0 
0 0 0 0 0 0 
0 0 0 0 0 0 
0 0 0 0 0 0 
-0.003412230317710231 0.01208801997455343 -0.002657961853207047 0.008284988986156254 -0.003642570860238201 -0.003787650427602512 
-0.01186887127847229 0.001268548814474203 1.24002583264424e-05 0.01242553032989868 -0.001230223191337392 -0.003769414233966335 
-0.02031970756111658 0.02347056153845044 0.001470983602064274 0.01047232378928605 -0.01213582804000959 -0.009581363141706975 
0.01422781739435035 -0.0009485621400327993 -0.00447579829848007 0.003488388116477999 -0.006153792006498911 -0.0002813246287271754 
-0.01046915329016584 0.01136453475506066 0.00450873881320827 0.004566169819019939 -0.001273841954599552 -0.01100802618014245 
0.002546059511423975 0.03100901933743401 -0.005633763370583719 0.0138577415000788 -0.00423089746670075 -0.01813335309045207 
-0.009805857601973399 0.01099610916096332 0.005505435154935782 0.01587401525070392 -0.001066137860096968 -0.03544345801302336 
-0.01497848075514427 -0.01464598201766858 0.02171927058138098 -0.002266227352827417 -0.008455259681094118 -0.01577243929558647 
-0.005712824759703781 0.009158243290816539 -0.00452579540856081 0.005189784424993391 -0.001930993277295864 -0.006455488489709955 
-0.009419021283796385 0.006687074061303389 -0.001783733249813168 0.007370778629839738 -0.001060153364686182 -0.002613682470778567 
-0.006347709372367549 0.004210631615697073 -0.003229198131858897 0.01005618915205175 -0.0004177421547845998 -0.003092681861890404 
-0.007640623131842991 0.01314150335512074 0.001583339213896063 0.002718037752527114 -0.003317680001914731 -0.001689300732992498 
-0.01207028555352938 0.004618536450953714 -0.01266184913082012 0.03094294259220262 -0.007380023537964998 -0.003815444444914397 
-0.02296784924020948 -0.008505262867195541 0.0358439634284359 0.003553320122601271 -0.01955025612160441 -0.02101677878703108 
-0.01500662503413343 0.02637396355959181 0.008175828347190829 0.00103201455301786 -0.008011932232095988 -0.007992851216390821 
0.002639173417406522 0.03480951218457626 -0.00650935858427096 -0.00350906460643083 -0.00764635894455982 -0.008311469990980036 
-0.01432808835604814 0.03229340151549188 -0.007828748443127895 -0.01391492318311252 -0.001667564169418944 -0.01641604294504615 
0.00474001432896932 0.01033064559344232 -0.01157270333772597 -0.00392661766031648 -0.001314711007372669 -0.01421631001421494 
-0.008173971743177346 0.004682702345988242 -0.02176647053426057 0.01167396739985991 -0.01080644878918319 -0.02878840224129192 
-0.03583182116273658 0.001890673750316178 0.03441500272149522 -0.006700041773144641 -0.02083620866937915 -0.03028019558510179 
-0.0211885503582985 0.02148247284260455 0.006680891290328173 -0.0001479633785524031 -0.006540235344899507 -0.009193734237158564 
-0.009542935976040934 0.03918316914215145 -0.01220811355619339 0.001981905871648188 -0.01064206299849704 -0.01391137190056118 
-0.008110227997239063 0.01506737366108098 -0.004147225725197029 0.003656371759018825 -0.001051479065457492 -0.006285771833496755 
0.005102740976940852 -0.007082674283459807 0.00367625078346246 0.008028849683425461 -0.00428671896968207 -0.002428821046844151 
-0.007955327045291177 -0.01019289761193872 -0.002663380916813472 0.01018328450156729 -0.00650068118093259 -0.009126317636805277 
-0.05003721220971739 -0.002532491097064481 0.03865444066273878 -0.03998206715352407 -0.02810691612227977 -0.0469544003544847 
-0.03807364810437566 0.08320760832192338 -0.02079147155132453 -0.01205710063428289 -0.01557486603377019 -0.03139412050238876 
0.002536164528642255 0.01775181937395415 -0.01723605035498576 0.0008955283259424908 -0.01385243582790784 -0.007579830189603226 
-0.004952582291143281 0.005123150961089715 -0.00656937335548537 0.02187586934658491 -0.002051116111754987 -0.01117739832244311 
-0.007151368588113782 -0.009982321712197153 0.004228540831593158 0.0004512301300765689 -0.0146268305147394 -0.02040068490088909 
-0.01830838117323129 -0.01292864702072254 0.00721982267197907 0.00526380359946871 -0.02072868028342751 -0.03390823066034352 
-0.03758875074258507 0.000401114265267739 0.02254399955007848 -0.007151632885677681 -0.02447052396232561 -0.01923656628184274 
-0.008366330701850489 0.03335382806665806 -0.02127164972235895 0.004134492364334609 -0.006664596203513774 -0.003652074105812736 
-0.01817693344432539 0.04502409954801367 -0.02688682002738388 0.009823492381788569 -0.01072597547201559 -0.01423032528493521 
0.01429153862701927 0.02317949256433318 -0.02699131422636468 0.007101765852843829 -0.006587435002541042 -0.01860295624199803 
-3.234696825069009e-06 0.02459501056612335 -0.02444558833403165 -0.003528175768855381 -0.004572309809509816 -0.0160940057098779 
-0.007924462448862494 0.02373324078437553 -0.006346608212764091 -0.00915124546781005 -0.01456388061753695 -0.03446317844020321 
-0.03125956623361111 -0.004996890809641363 0.01771092728481754 -0.01297639085068272 -0.01897850557969935 -0.03278314545352029 
-0.03145354690367211 0.08798393400262233 -0.02543082019644002 -0.009091923859911869 -0.01763923117048771 -0.04363886987302433 
0.01170613316366977 0.0173048426330704 -0.02018771382247724 0.006094892760117903 -0.006921024751909693 -0.01987852845747436 
-0.01195466925584103 0.00397630088929451 -0.02420635349674208 0.0213319642229699 -0.02915137766245558 -0.0340383223446915 
-0.011658937615211 0.002241809735310337 -0.03248665731120132 0.03016994715440981 -0.01119252912642243 -0.02010788889059798 
-0.002254168451883906 0.006411142430782332 -0.02377369678939171 0.01817766128042017 -0.008959571739543015 -0.02821502922692372 
-0.007898385737539638 0.01735607627863452 -0.01411953558761031 -0.005403387266729376 -0.007234711195780306 -0.01038243127944539 
-0.02712715608561785 0.03739724351513595 -0.02279765371835785 0.002953103848983573 -0.006052088450254886 0.005262751543040871 
-0.02646389580526957 0.04080911698982648 -0.01754294737753532 0.004678947641088107 -0.01358346870032704 0.001961459114572961 
-0.01601541566814056 0.01045447304050339 0.01999355149062291 -0.02287693701613773 -0.01820455516357622 -0.02537850927960755 
-0.01029691196332046 0.01696201460459624 0.01294132197717443 -0.01827641550633606 -0.01513320429084088 -0.02909509514150332 
-0.004219900553442894 -0.01260898453824693 -0.04733656537005572 0.06196532839221439 -0.009096681630782545 -0.009853212502763277 
0.01065312587437722 0.02334854576550847 -0.0129948380361564 -0.008368773241972487 -0.005821151305478087 -0.01860034315626469 
0.002277953301078667 0.05840903825281857 -0.01760431672875806 -0.02050645995383336 -0.01167065103650921 -0.04117342748040079 
-0.0115834959562062 0.03623041599480847 -0.008506040033452435 -0.006749786734679013 -0.007785657584730339 -0.0103279541118982 
-0.01563216533826994 0.02704327203506482 0.002793790076012296 -0.002054380696826723 -0.01116964949497487 -0.008981548326071254 
0.001075515249347152 0.01158318516838856 0.0007514325989055405 0.000130285331569294 -0.007977972474793621 -0.002146507045211657 
0.01156172588574467 0.004185555379803215 -0.02638551969352113 0.02685260420087483 -0.002975979557793047 -0.003461750750234157 
0.01241107263744564 0.02243157253723028 0.003986453105367405 -0.009963058468882829 -0.01102893093285302 -0.01625319770136743 
-0.02974265668981167 0.05008992671559816 -0.00761605258197849 -0.01308574625261434 -0.00775443545378041 -0.01261771365579465 
-0.02879766694664448 0.04358278965496877 -0.008058613409156319 0.0006514429199503134 -0.009644784260749995 -0.01164189957560581 
-0.01551622003881362 0.001210755808262274 0.01510150457825759 0.01330729562527128 -0.02064065337248728 -0.01658556767066423 
-0.01616831903438125 -0.005716561642554617 -0.01845228260620956 0.04200293670990154 -0.01416981551420044 -0.02456310810833743 
0.01441264780986952 -0.007967599753014174 -0.001304717030027408 0.0123406931485781 -0.002770982530051586 -0.006101105910400187 
-0.01103598523442535 0.01898974636220207 0.01102997871345914 -0.004603414804553363 -0.003058105809087092 -0.01116921878252345 
-0.01241691634088611 0.06953158835044766 -0.02004892576850963 0.00747364762199675 -0.01736169706695949 -0.03799877817405048 
-0.01158917836564435 0.02406841030465889 -0.002690361804748055 -0.004009761549950763 -0.0005603508431412016 -0.007747138820821086 
-0.01335261916156032 0.01159417425551442 0.01620169483500137 0.005731042227381341 -0.01160567262886886 -0.004110886156543822 
-0.0003832130191685308 0.003264642550538334 -0.003372713171783601 0.01760106892157962 -0.0055177325585022 0.006903121447154647 
0.01584157826469966 -0.00278583017727288 0.003412301537269367 0.01635140961710112 -0.002963413311765288 -0.01234789697187789 
0.007932552465159148 0.01051275799297591 -0.003055875504518713 -0.004213224032654962 -0.004134685126603345 -0.005629295523269354 
-0.01207753484844849 0.04087737202414299 -0.01484241203955556 -0.01345960961485293 -0.009445927796559086 -0.0129463531097431 
0.01388370994220091 0.01428627860331271 -0.001833391655882838 0.003017084102306351 -0.004693427657358289 -0.008047869579791219 
-0.00507577363131387 0.01875043338787638 0.02223940237052241 -0.006008178160491207 -0.01605608106124741 -0.007441401335075513 
0.0284487376533248 -0.02370471628737628 -0.007523338267599476 0.02027244794283478 -0.003376250221782553 0.000455821003998154 
0.006368332314345629 0.04597655406794188 -0.00362637837976662 -0.01536316675748881 -0.008420632861716078 -0.005968950278987446 
-0.004695957276969446 0.01856758387707154 -0.004855897763092637 -0.006989502627556165 -0.00231185045730282 -0.00848334552115816 
-0.01035544802033873 0.04739971719801577 -0.01506751432680614 0.007989175140554918 -0.01251398474513289 -0.02594005871477185 
-0.007627849700381037 0.01246292371331232 0.0002026419987086783 -0.00624966909139921 -0.001749811914427688 -0.007085967452261515 
-0.006507423180117559 -0.002875561474769636 0.02030382922557535 0.002494594827990283 -0.01000581535022391 -0.008982518562253392 
-0.000425035923021109 -0.001805491586735067 0.008335744005832027 0.001569740521980862 -0.005339412571959354 0.002852370303560463 
0.005718285370996419 0.01622813447206821 -0.006422407396577858 0.02014429031221106 -0.005074120926781062 -0.01035314390962903 
-0.005017583181824114 0.008954490975203849 -0.002491856442315916 -0.0007387700870326719 -0.003129531402112468 -0.00645234052292606 
-0.00728043029448508 0.0127761434264402 -0.002098181813614289 -0.006455543663578063 -0.001238186882036303 -0.005682092588371215 
-0.006684370050492855 0.03117581340700211 0.0007450088116214615 -0.007893370166116393 -0.003214726287677958 -0.008794924755639101 
0.00351968614073575 -0.003431465147343317 0.002843994910505375 0.004049112954683423 -0.0003965493341804697 -0.001514949165673178 
0.01171035889349086 -0.001863624466223888 0.02582409885238402 -0.01446415693676964 -0.002144082704625265 0.005515502576767577 
0 0 0 0 0 0 
0 0 0 0 0 0 
0 0 0 0 0 0 
0 0 0 0 0 0 
0 0 0 0 0 0 
0 0 0 0 0 0 
0 0 0 0 0 0 
0 0 0 0 0 0 
0 0 0 0 0 0 
0 0 0 0 0 0 
0 0 0 0 0 0 
0 0 0 0 0 0 
0 0 0 0 0 0 
0 0 0 0 0 0 
0 0 0 0 0 0 
0 0 0 0 0 0 
0 0 0 0 0 0 
0 0 0 0 0 0 
0 0 0 0 0 0 
0 0 0 0 0 0 
0 0 0 0 0 0 
0 0 0 0 0 0 
0 0 0 0 0 0 
0 0 0 0 0 0 
0 0 0 0 0 0 
0 0 0 0 0 0 
0 0 0 0 0 0 
0 0 0 0 0 0 
0 0 0 0 0 0 
0 0 0 0 0 0 
0 0 0 0 0 0 
0 0 0 0 0 0 
0 0 0 0 0 0 
0 0 0 0 0 0 
0 0 0 0 0 0 
0 0 0 0 0 0 
-0.00189668351372286 0.003366979809448585 -0.01392218797315012 0.01309191213848611 -7.406024920083688e-05 -0.0005134008082950508 
-0.001157600015398652 0.003458276796513437 0.001799340628521978 0.0003835522814417706 -0.0003060815272380857 -0.0005751883620133666 
-0.01955681981718678 -0.008548889703469209 0.002729471116643297 0.01222174315201041 0.001912794528462395 0.002834455325103147 
-0.01448757232393554 -0.00658978255445082 0.01833670261702813 -0.00361972021355166 -0.0004493076618504514 -0.003085215140455326 
-0.003907768872008765 0.006270352689093746 0.004861859868525637 -0.006265210536045797 -0.002602396257894109 -0.006036816330952554 
-0.00964261536666992 -0.0163279797184672 0.02246071084456301 0.01254417897737408 0.001930291515562226 -0.01481545719248375 
-0.009487220320177479 -0.02035516170842551 -0.004503300265226533 0.0340420110327774 0.006488003174892041 -0.009250031780293953 
-0.009309563815226147 -0.0035551639065646 -0.0004073654624302278 -0.002892847044999959 -0.006771215032502757 -0.008870528357920508 
-0.002922177936392168 -0.0005478012259999233 -0.005331423045515843 0.003457879873542612 -0.002028973493129095 -0.003221812701079495 
-0.007600266671463834 0.00364288926637189 -0.00349618397534085 -0.001824374749694757 -0.001634577620007896 -0.006543533283838232 
-0.0004954170737233564 0.006570624755741323 -0.008441811211837801 0.00368172727350293 -8.626501172193015e-20 -0.0004634138778383952 
-0.0009264794902441018 -0.0002948996471972015 -0.009454588184393074 0.01260982327867413 -5.471881644573336e-05 -0.000200950259973479 
-0.00307977799461372 -0.01796008768592921 -0.01642073914075596 0.03798181741447709 -0.002275723908735596 -0.001710557692340339 
-0.02144069983843909 -0.03856674615132061 0.03716399366668574 -0.01168086425016583 -0.0188748357007353 -0.02583195547928253 
-0.01742619235157711 0.003180535642918419 0.01294341532956321 -0.01049649373249134 -0.00132878310674715 -0.005087159722073933 
-0.005798627367054989 0.003818047905210595 0.002089303183056537 0.007603909129553398 0.004256557905441666 0.004448087262752064 
-0.003846698852635166 0.01687565503658648 -0.0009425663046966264 -0.007686320924377683 -0.0001308441737715337 -0.00696903544599712 
-0.007464982520521457 0.02610884679330282 -0.02493085838761464 0.01019993973981495 -0.0008475881120451196 -0.007195016442570821 
-0.01959896431446547 -0.0204076472944517 -0.004774499478441848 0.01210001152163473 -0.008966606876284405 -0.01015900398951759 
-0.02341208900885415 -0.01743423137042103 0.03027911090859144 -0.01588229087573716 -0.01942108590843735 -0.01550146137489233 
-0.006136785314471172 0.01499613916399261 -0.005740914911249046 -0.004109542353808426 -0.006072628275575883 -0.006207471054860192 
-0.0142867528222089 0.01444650360902281 0.004472429395219237 0.002878247119278747 -0.005933770545325785 -0.006588089953545415 
-0.00163175983946736 0.0001707685971388017 -0.003558649724189941 0.01304794002277974 -0.0001869990694039288 -0.0005465278129769039 
-0.002865368953601167 -0.007321234380313632 -0.001367364133644658 0.01724717189371406 -0.003139749927245551 -2.08621202239211e-05 
-0.01352544603936589 -0.01310229118021197 0.01656195977713444 -0.008406746676261286 -0.008703991056034095 -0.009164175531167657 
-0.02708990055277546 -0.01368703924640789 0.02598118409246494 -0.02182467428346411 -0.01462320311716846 -0.01906545714739592 
-0.007050230952089413 0.01201558673097004 -0.01800204571345454 0.003969646601040723 -0.002445253550599308 -0.007200538608072312 
-0.01260067008093085 0.007230035953681925 -0.004818151194158375 0.008359403022768521 0.002805350546704572 0.001322113761044661 
-0.008737274501023748 0.008882265426806349 -0.0295397394998032 0.01141527066507949 -0.00192142680561291 -0.01210499820746943 
-0.005805008756910778 -0.01049578704399341 -0.04472697473239135 0.04948316452087027 -0.001311093299045819 -0.005937475246860423 
-0.01771995251164122 -0.01202575833440293 -0.002704980861803134 0.01477238206608558 -0.004882629518535227 -0.008942285005579271 
-0.01604839421394119 -0.008017392503366276 0.03188531985014367 -0.02425364147421206 -0.008635809093426977 -0.01731836969352936 
0.003553452062703964 0.003237304472265237 -0.004780446682110864 -0.0009301334788811142 -0.0009732398748896567 -0.003369362972023959 
-0.009808569460075071 0.03023098971358408 -0.01589602397024419 0.0005928237613043231 -0.002101804605420352 -0.004671833152993007 
-0.003394338914645235 0.01185010033482247 -0.02287833270410007 0.01347610639076004 -0.001245779235228054 -0.005499908957477302 
-0.005734287049723272 0.003593832493021576 -0.01200968043379671 0.0038302402573051 -0.001742692276375416 -0.003905351475728042 
-0.02605510675929037 -0.02345436068253842 0.003582497659483918 0.0002138115540797561 -0.01140854448249618 -0.01791465107335807 
-0.009068104897460858 -0.009214845159749687 0.001781601439630664 0.01303041824677015 -0.0006212601900225041 -0.01481041269682589 
-0.002356348894469958 0.00375778879797636 -0.01582655528774446 0.004629345761797986 0.01687710237319791 -0.006841931225183446 
-0.007566227832992141 0.005094054547357636 0.0098085620768616 -0.01117279866574097 -0.008294404343765462 -0.01231752018296759 
-0.01937032552376543 0.005235967384566434 0.004358246228868574 -0.009113235909649605 -0.014852254849775 -0.02789385122733536 
-0.02451105003111536 -0.01973367658403231 -0.0042438691023937 0.01916869259703508 -0.008080912403677764 -0.007510964135963751 
-0.009517946692593296 -0.0138760492955544 -0.01221847436344224 0.02030395303825922 -0.002006594586681964 -0.003357137745761166 
0.004870903112012531 -0.001484123040137714 -0.02168366625386213 0.01754068443235008 -0.002461782039476381 -0.003929989885277147 
0.001576745832282214 0.03238697490359058 -0.008332142296321968 -0.01026952307006356 -0.002773808755581139 -0.008656611806460589 
-0.01298808023970598 0.02588206247884191 -0.01886204213031166 -0.001136709507847603 -0.002089965908158358 -0.005815944123502263 
-0.001118932972083016 -0.001593469220577123 -0.0178203709382107 0.02507925018634615 -0.003092971938453939 -0.006124440448200805 
-0.006157698859557638 -0.003978037415524255 0.0007495614429043384 -0.0005229565959343626 -0.004771776317272317 -0.007888412494091121 
-0.01241709083121921 -0.02115372193346508 -0.04066761630361884 0.04592407948358779 -0.00458720480737683 -0.008758920724612453 
-0.01113570115517959 0.01505682333758964 -0.008039729917197803 -0.01438954072108304 -0.004634661109914652 -0.01023254592823646 
-4.14851131879315e-06 0.007325219625188183 0.0007357456120658743 -0.001303086493530293 0.01446472759462878 -0.008513342805611029 
-0.005795515385133494 0.009372750362193974 0.003826460463128868 -0.004265038653107437 -0.002407002644053431 -0.004413966052292041 
-0.01543182212533747 -0.005651428398262757 0.004788988357337746 0.01578424184113322 -0.00729455211215527 -0.01028132331205351 
-0.008387094896012456 -0.01315299417261562 0.01142023019305896 0.001468235868180396 -0.007169614283926141 -0.009417195578778494 
0.003051358000062095 -0.006087800831272259 -0.0249753848326309 0.03643384725543643 -0.001683612637546041 -0.003237363794209276 
-0.005596949959755766 0.01160774238049226 -0.004047863357357295 -0.007649859178918986 -0.003746791645400361 -0.007995452488881144 
0.01517165082643598 0.024691854065294 -0.01156608487735911 -0.002628754384691357 -0.003661194561574528 -0.008080589201144942 
0.002412816966069155 0.008580263155635856 -0.01033613549782524 0.003916757331474979 -0.004328185250290352 -0.0115305326912784 
-0.01554453395107858 -0.00516211548943611 0.03027040346434731 -0.02393882118005032 -0.01429311497138962 -0.01616328326246478 
-0.0219938401317253 -0.02854427219046311 -0.001626289174055328 0.01654036555381986 -0.01835703653618133 -0.02423841330268035 
-0.002482347889782939 -0.004539527070390875 0.003259590127036655 0.008413193600788271 -0.001757189991241836 -0.001669234194087143 
-0.005369163644217871 0.02578495349234614 -0.005520509005982566 -0.02045572440816861 -0.002240953275774501 -0.006787504094150855 
0.004370840435735285 0.002511202762924031 0.004102111655853845 0.001120326168891941 0.01407744105561605 -0.009054408561508999 
-0.001658405996620116 0.01169792221854199 0.003092346925501769 -0.01266139393624552 -0.001815726419925779 -0.002043350130350063 
-0.004337984436279257 0.004622716798513359 0.007320317388487609 0.0115398400756292 -0.009050204641518162 -0.0007388029503060707 
-0.0008349952295283402 6.774428927022608e-05 0.005407521078987903 0.001289605381805498 -0.002682418499152897 -0.0006482190295988521 
-0.001949934347053335 -0.01013184772873945 0.006008797839751973 0.01257586326595152 -0.002678843397586251 -0.001974854203699252 
-0.0005285351335836117 0.002436502720046119 0.003413437632103621 0.0009835371096634606 -0.002622473777813372 -0.0006994848361876046 
-0.01158552656244897 0.009626788684193562 0.01451261086836398 -0.003950937823495979 -0.005239639826412274 -0.005138024845885747 
0.008977261291425107 -0.005345770293331074 0.006770537344795383 0.006935017578036926 -0.002284614614251375 -0.009268308242086963 
-0.004710379432120573 0.00575008014941174 0.001482438013925142 0.01266369809866758 -0.003385392079475796 -0.001815500081164852 
-0.01465297912806839 -0.02118140192708854 -0.0007569242733958311 0.02608934504733648 -0.009674434168569151 -0.01135631769532604 
-0.007939010254121838 0.01066376203401449 0.007515308834059342 0.00457303317500657 0.00388327053528567 0.005043588076963429 
-0.00739005190403963 0.01601093513545391 -0.004629467216302892 -0.008964055113768809 -0.004072942429953501 -0.004117151438450533 
-0.003089812366312101 -0.004678378286018569 0.01517269779086212 0.00777538408485973 0.01584134488165037 -0.005553141099599204 
-0.002114640317158059 0.002407482798669897 0.002477386079768029 -0.001071559268753083 -0.0005316001465252707 -0.0005164688147725444 
-0.001189095227512995 -0.0006971320015347213 0.004756842033125137 -0.000157602674032405 -0.002426023477370501 -0.000639696129163289 
-0.0005348475799966934 0.0006856546244296515 -0.0004191548015788749 0.00363793804172731 -0.0003070100266193545 -0.002447562053635988 
-0.00331804963815038 0.0007485179077445643 0.00228255739279746 0.01288624355426086 -0.001513076309894768 -0.003479954814974822 
-0.002197205051166004 0.00703217117376344 0.002371893527513603 -0.00332487385226379 -0.002317567570048613 -0.001380402223391612 
-0.005147739694881914 0.002138401290198918 0.01681077565626593 -0.01082217536221955 -0.001563304494692099 -0.00382885268410796 
-0.002102781586187974 -0.003802412681530894 0.007102970640506241 0.01049763903851252 -0.0006275464917931775 -0.002377260408476073 
-0.000232579881969845 0.004320802493277623 0.0002666997164943344 0.002838801887350559 -0.0001491072763343047 -0.0004138396735327973 
-0.001299550670999241 0.01666770455365334 9.427570214729105e-05 -0.005847473223702996 0 -0.0008674967256639409 
0 0 0 0 0 0 
0 0 0 0 0 0 
0 0 0 0 0 0 
0 0 0 0 0 0 
0 0 0 0 0 0 
0 0 0 0 0 0 
0 0 0 0 0 0 
0 0 0 0 0 0 
0 0 0 0 0 0 
0 0 0 0 0 0 
0 0 0 0 0 0 
0 0 0 0 0 0 
0 0 0 0 0 0 
0 0 0 0 0 0 
0 0 0 0 0 0 
0 0 0 0 0 0 
0 0 0 0 0 0 
0 0 0 0 0 0 
0 0 0 0 0 0 
0 0 0 0 0 0 
0 0 0 0 0 0 
0 0 0 0 0 0 
0 0 0 0 0 0 
0 0 0 0 0 0 
0 0 0 0 0 0 
0 0 0 0 0 0 
0 0 0 0 0 0 
0 0 0 0 0 0 
0 0 0 0 0 0 
0 0 0 0 0 0 
0 0 0 0 0 0 
0 0 0 0 0 0 
0 0 0 0 0 0 
0 0 0 0 0 0 
0 0 0 0 0 0 
0 0 0 0 0 0 
-0.001935679933581267 0.008279370631996096 -0.004727938545950106 0.0007058324711329715 -0.0005949710259144526 -0.002011255781953567 
-0.006310557828022364 -0.009471702703115094 0.006853345133085574 0.002139206224982994 -0.005024870520311012 -0.007037828595740452 
-0.002255234726326574 -0.004332956124482965 -0.007631520537681191 0.0195947931059679 -0.00270962220568042 -0.001040723475575974 
-0.00246041005559018 -0.001425296294291424 -0.003815436034292237 0.01287847244752234 -0.0008662671605529375 -0.001794439192598836 
-0.003750087109089683 0.003507572489732098 -0.01034449329311588 0.004725313808418296 -0.001500628896524433 -0.003509956007442014 
-0.01350537261376598 0.0001771489375405215 0.0015879624559953 0.009925460062909676 -0.008854354905987495 -0.008651282648747684 
-0.02121143101783572 -0.006189422840875104 0.009747988946697662 -0.007798587936959403 -0.008907054652232779 -0.01682998348926752 
-0.0159785821674905 -0.02423344312227307 0.02254613405010193 -0.01261921090029109 -0.009511283294054696 -0.0141623364088374 
-0.0004023406638558908 -0.002952429695894884 -0.004804561454507629 0.007515460387387799 -0.0004624088237121515 -0.001124506227103809 
-0.001320682999754195 0.008287253912839517 -0.01034344057121878 0.01006275139044754 -0.0003468784157066719 -0.001057201398035597 
-0.003375784380008496 0.008370762859044836 -0.01219177960357524 0.005291269709157055 -0.0002181436753962513 -0.002340379849606413 
-0.0009813854971469434 0.008009557609535273 -0.007157082534438809 0.002840071702886007 -3.407151809506386e-06 -0.0008346118823574048 
-0.007046015032245912 -0.01659123574104749 0.006568000177202448 0.003717651908457168 -0.005722229033691991 -0.006534038898173335 
-0.01771330476854556 -0.02079461582722644 0.02008520780030531 -0.01573276183505276 -0.01033276387914594 -0.01225109679388741 
-0.006780689263582733 0.009716586806970934 -0.0006915257507425906 -0.0003743412337171962 -0.006460349912586247 -0.008116737736360357 
-0.004080467913083434 0.01800573713281268 -0.009040022758727315 0.0006721458556948925 -0.0007911217125301935 -0.0022707114479257 
-0.009913917464451295 0.004588830295473384 -0.02228897982261848 0.0125596291790792 -0.002023230076884139 -0.005802627349825565 
-0.009658331691507566 -0.01230977086992465 0.006003029891954993 0.006750152522312347 -0.002535237096281767 -0.006560740718370894 
-0.008276589673653245 -0.008509374297218798 0.002956620611116019 0.008902859738632859 -0.003860240760175324 -0.007302455902128189 
-0.01651192578243679 -0.01656318525369704 0.03068005513728674 -0.01665039640348343 -0.009072731408251475 -0.01327336942070986 
-0.000895845817464289 0.002641247186997071 -0.004551954318814486 -0.002875020421317719 -0.0001298125075254959 -0.002792922006400966 
-0.00548624847302921 0.013198368694201 -0.01201316502646873 0.002174758820226877 -0.001537922616553515 -0.007065643796696087 
-0.006846820500671012 0.01494853417002087 -0.01510790781142932 -0.001659764444150659 -0.001289287453944373 -0.007669104489489339 
-0.002333722736788681 -0.004940766307728764 -0.008369375106092879 0.01367282487526911 -0.001718047563980349 -0.002537345365085672 
-0.01317824971241651 -0.009444150191848702 0.004773878109694226 0.001895575813440176 -0.004481658738330218 -0.007723418330670024 
-0.01852993463529462 -0.01788663060719052 0.01211250104814108 0.005630214457057338 -0.008551010013978455 -0.01485906449746956 
-0.008447274214325298 0.01715337262986118 0.002962366790494986 -0.009243025987638024 -0.004718254589304584 -0.007053152723933857 
-0.004445592104688721 0.02784691630284869 -0.01671738500556804 -0.00724638304808213 -0.00109010546176662 -0.00382475547471229 
-0.007803710701562327 0.02789522040322202 -0.028598049143327 0.005437746294881064 -0.0009463106454665074 -0.009440574838124598 
-0.007559436648315114 -0.00714690856695625 -0.02446259843335239 0.02227818243323959 -0.0003899781825577628 -0.005532124314783273 
-0.01090610372790091 -0.02086932942833916 -0.01707373424395922 0.03729019121061516 -0.002554292409868071 -0.004786914639843869 
-0.01075344047673477 -0.006977639852353564 0.0006497814222998009 0.006720423248923173 -0.003153406650796139 -0.01019943266855534 
-0.003465784148756511 0.00533889592230198 -0.007862578988844324 0.00302990086311322 -0.001156816712800532 -0.004510436751351944 
-0.006077829001842376 0.006610508663076315 -0.01735220612839434 0.009693639072089852 -0.002217594348337189 -0.00459562015181706 
-0.002043858201537232 0.01479164787522066 -0.01201268440620231 0.003499754217662919 -0.000395261444433784 -0.00265921902190593 
-0.00278393470518351 0.006158406816249936 -0.004488265253312475 0.00160529995400392 -0.001350520064570648 -0.001646731473273125 
-0.01045132550728084 -0.01473446267299909 -0.02989341253563258 0.03719219592136037 -0.001650784589856693 -0.005360287976320701 
-0.006233618353832042 0.003642903483966301 -0.01269795214499534 0.005630710844582978 -0.001652918681580679 -0.006444050495895842 
-0.00889030536451383 0.03657962460203634 -0.006000191039046965 -0.01583016661892312 -0.003561820149098957 -0.009680205721764328 
-0.00221896020929071 0.02299800546706936 -0.007199825907263027 -0.009248679657230032 -0.0007282238369275487 -0.00366388659516353 
-0.00613174817068091 -0.009414488811582598 -0.007889600257775315 0.02077406719274014 -0.002742958345697224 -0.008942091335224462 
-0.01580257259389056 -0.01496857493815477 0.003283239681129908 0.009214090223666189 -0.0104941757091898 -0.01674219321911175 
-0.01468634718624022 -0.01361004028359351 -0.01835945502222888 0.02709127804496791 -0.009232207005688439 -0.01083527620977811 
-0.002253432144981585 0.001110556146456312 -0.01571069700464331 0.01524353026585938 -0.0007577120721588858 -0.0027060835404138 
-0.002121353557760578 0.006709501341097985 -0.01043956868995475 -0.0003930415847553493 -0.0007035479093119748 -0.002797992712025715 
-0.002257630606568081 0.01396772255669998 -0.01191486354812213 -0.001775108573299494 -0.0009791176692213962 -0.004670471031908932 
-0.003623394723199451 0.007573988576632017 -0.004875745628322177 -0.0009526064409807712 -0.001563606642215624 -0.005749470087536825 
-0.003826946713315481 0.01118193568256115 -0.009312109152661958 0.002136210399201444 -0.001277671011309585 -0.005765187577645579 
-0.007178854624252923 -0.01327794942680711 -0.0193050754883063 0.0252221516452463 -0.003555330954295932 -0.01046879313705112 
-0.005069843831843617 0.01665874533971137 -0.000920257420126166 -0.01319509249733969 -0.003102090915239673 -0.007804107274549482 
-0.006580798078226541 0.02369176939941358 0.006093718368196419 -0.01787090571409414 -0.007191344996440431 -0.007997552107558229 
-0.006678899691484092 0.004055494219190671 0.003558048115340453 -0.008548970149257927 -0.003796853012331502 -0.006725819409589996 
-0.01666120449851535 -0.005592963343912656 0.007623051887620259 0.0115162685421162 -0.007326913548047832 -0.01390717226432169 
-0.009930443495915162 -0.004842214563458668 0.01588364808488494 -0.0122990562214186 -0.006540147363678679 -0.01101889096889202 
-0.01237953930078949 -0.01186039581439882 0.004158371930745097 0.00120929905019342 -0.009315889397355609 -0.01506007972947641 
-0.004330840434367779 0.005663228906303156 0.001687560412683631 -0.00362446980762511 -0.002899521346247303 -0.004595698296657383 
-0.001198334836146678 0.005184850128773802 -0.005464101231374655 -0.001228319368459822 -0.001298323154997761 -0.001601479079766257 
-0.002996279893188379 0.007667794127509481 -0.003115039506826804 0.007820251914778628 -0.00233223236834972 -0.003295902378312173 
-0.009651641783051841 -0.01466635783907856 0.01566958783215564 0.002646609004833701 -0.009535923224836495 -0.01189645705104731 
-0.01903598098666009 -0.01422901768947439 -0.00204087520256954 0.01267149578046783 -0.01029016664637617 -0.01581007949257517 
-0.007222053385226473 -0.01181671185126095 0.004102396916135374 0.003774662723820682 -0.004177896320809424 -0.007926467431816084 
-0.00119822250360414 0.008580174415973842 0.0005274910411973498 -0.007707428220783833 -0.0004320626977835229 -0.002097809292833262 
-0.003432547432999354 0.002633055085667409 0.002314830728856419 0.006781301005162397 -0.002666148505904724 -0.0008967552798682189 
-0.0009454478171487736 0.005361734315091906 0.0003509264351310988 -0.001529018152572967 -0.00023691538469529 -0.0005460578964802141 
-0.004732055320646914 0.003117711358351225 0.005944684409679019 -0.002631735183769655 -0.002653903248655496 -0.003132477570350288 
-0.001502462354442443 0.004560402552934444 0.009983345854363876 -0.004886212223488462 -0.002045460478196494 -0.001174866318445347 
-0.003542071400086013 0.008465312236424298 0.002934785167679317 0.003673022994985022 -0.0004666658020254084 -0.0009165235082524926 
-0.00227695097703111 0.008782166171992201 0.005651321316383022 -0.01393295161305669 -2.981902825186289e-05 -0.004621262201578292 
-0.004091997543721528 0.003878479265765506 -0.0003043154706638336 -0.01104719193195848 -0.002740226583733747 -0.005306901065329572 
-0.005320095520517511 -0.004160958758488477 0.004385687687413288 0.009385293894432331 -0.002166284333489894 -0.003669647979096352 
-0.006985719588556748 -0.0163571714004573 0.02740172322743225 -0.0008890912252146676 -0.008578005021311771 -0.01136877455946461 
-0.01368958311686641 -0.02866797335480892 -0.007360136017695358 0.04206885922061265 -0.006899177571498567 -0.01080139393357068 
-0.002427403294958732 0.01766749430195146 0.002972713324956196 -0.009203771862005848 0 -0.002141869518430361 
-0.0003255820099335781 0.005180017690314415 0.00715503614112967 -0.007873733923979647 0 -0.002019347403589359 
-0.002303114765180846 -0.01691863990507874 0.01050585904879844 0.01812264917900077 -0.002945583561227029 -0.003103854423188166 
-0.0002031944995345721 0.002480512254623785 0.004381688925596453 -0.004135891953460599 0 -4.786064559594769e-05 
-0.002428151218861678 0.0006170582629205767 -0.003891015550401665 0.008746964999862532 -0.0003653204012971997 -0.0008811968543709067 
-0.0007634482746331781 0.003003646521179464 -0.007215069158334565 0.01497989961361571 -0.001156379541591913 -0.001176878049159409 
-0.005669182052602267 -0.01119658838768564 0.0002168833594635204 0.02641683866264586 -0.002881177967953561 -0.001208178688612258 
-0.001069789369243569 -0.009368712948804512 0.006960818572343657 0.006243988915974605 -0.0002195863625252953 -0.002133208895271709 
-0.0002942859678297682 0.0008031900847839509 0.01168117817288767 -0.004147032030554024 -0.0006308183034400592 -0.00195921452164053 
-0.003947901976556269 -0.005517598260946468 0.002826738551479407 0.01581651054336855 -0.0007959336886230236 -0.005515337724939482 
-3.087038046047899e-21 0.0005559495414356571 -0.0006193668037162676 0.001453095959551529 1.041850525122789e-19 -0.001732950534155729 
-0.0009732089686779139 0.01566663378373613 -0.0006103130877183018 -0.01016597354396714 -2.339928516790005e-20 -0.0002361122306495052 
0 0 0 0 0 0 
0 0 0 0 0 0 
0 0 0 0 0 0 
0 0 0 0 0 0 
0 0 0 0 0 0 
0 0 0 0 0 0 
0 0 0 0 0 0 
0 0 0 0 0 0 
0 0 0 0 0 0 
0 0 0 0 0 0 
0 0 0 0 0 0 
0 0 0 0 0 0 
0 0 0 0 0 0 
0 0 0 0 0 0 
0 0 0 0 0 0 
0 0 0 0 0 0 
0 0 0 0 0 0 
0 0 0 0 0 0 
0 0 0 0 0 0 
0 0 0 0 0 0 
0 0 0 0 0 0 
0 0 0 0 0 0 
0 0 0 0 0 0 
0 0 0 0 0 0 
0 0 0 0 0 0 
0 0 0 0 0 0 
0 0 0 0 0 0 
0 0 0 0 0 0 
0 0 0 0 0 0 
0 0 0 0 0 0 
0 0 0 0 0 0 
0 0 0 0 0 0 
0 0 0 0 0 0 
0 0 0 0 0 0 
0 0 0 0 0 0 
0 0 0 0 0 0 
-1.879862328983208e-05 -5.495857815182923e-05 0.002758562170243418 -0.002826725331631769 -2.353163406590853e-19 -2.055543822194274e-22 
-0.004822861857008866 -0.01016292855521546 0.005043163917424122 0.0003237851249887831 -0.002994096134785111 -0.005143054389295384 
-0.02228314174895791 -0.024320714278437 0.01902215774895867 -0.01040317976999098 -0.01478969201938542 -0.01915110601483292 
-0.001209471267904753 -0.0005416952678659224 -0.003673940389561237 0.004971978100320832 -0.0010567600687951 -0.002797271302907531 
-0.004356567789889371 -0.005875958835606514 -0.004659908013136314 0.002015802937545246 -0.001717663037868089 -0.003980498930412161 
-0.007809229676958752 0.002520525413569757 0.006748285881284594 -0.001563325492992089 -0.005132862024135754 -0.007842381163968858 
-0.01157561657167714 -0.006779617803114707 0.006240809750264439 0.004685214068082718 -0.004142826727092986 -0.00880354973783039 
-0.008984242077412986 -0.01359050589832361 0.01840389291688777 -0.01038590498911006 -0.004890351729442336 -0.009215049907490535 
-3.288125954551888e-06 -0.001444340918955327 0.002448409319066783 -0.003064743506380036 -2.073826217098333e-06 -5.492128725888781e-05 
-0.00536760441993066 -0.0005504236660918214 0.00989624474638977 -0.0001220449246563191 -0.002862021164884237 -0.004254987460888513 
-0.001981253186755033 0.008988716596374647 0.001157116028144362 -0.007927688421103845 -4.150556567316515e-19 -0.001415497033840806 
-2.390516306122564e-05 0.001287731503968487 0.002246632996502332 -0.003361702594337271 -6.455565654547594e-20 -0.0001089714519370253 
-0.003251358030952746 -0.0006661497798459325 0.009388946004983982 -0.002348199545775199 -0.002071624827420856 -0.002498111645869103 
-0.0206735479216042 -0.02063790603629093 0.03310302090707942 -0.01881635821062657 -0.01072779704441373 -0.01480707588719922 
-0.01235691975551279 0.002339982636381659 -0.01015649171933015 0.01091364207258091 -0.00415791878478894 -0.008084556311673687 
-0.0007737174423549925 -0.004745523989998553 -0.001885701683811891 0.0112747056825373 -0.0001006717244886993 -0.002118918553896849 
-0.005322000371134989 0.006036007237160996 -0.004251971591470217 -0.003314860962614311 -0.0006605388637070368 -0.006684712963212485 
-0.001035698130340711 -0.004683947828706219 -0.002893328758169831 0.006141694276892757 -0.0001025802408369864 -0.001741133873146173 
-0.01214412759878472 -0.0003453595985969518 0.008007022931359783 -0.001039139262954122 -0.003732811321192801 -0.008526955180999834 
-0.010221289320369 -0.004713299106762401 0.02138727461043781 -0.0174631628218474 -0.003984561482817442 -0.006755803935920249 
-0.0002991155560933337 -0.002902380295530579 -0.0001646477697046548 0.002170323101311922 -0.0001235100969245544 -0.0002847722483861826 
-0.004331849566327336 0.01196421620845871 -0.003632060975527314 0.001169809079063786 -0.0008111895980480231 -0.003115375824434193 
-0.006496572904222346 0.01943113667534084 -0.01097943178322187 -0.01292406367691415 -0.0003812716716131683 -0.005322116106477873 
-0.0005872532546134993 -0.001220968966483105 -0.005225840302337658 0.01082898481750651 -0.001381140539900784 -0.0009496720286961273 
-0.0138783347807311 0.004186476143772527 0.006561372004628878 -0.01099459121763177 -0.004637337350058252 -0.008655707668141435 
-0.003826850953771085 -0.006678747893461492 0.005486501349839659 0.00319126998907492 -0.00130876888229333 -0.005478235461320392 
-0.01354789015786231 0.004705592091092559 -0.009343248927740456 0.004502636905842006 -0.003369799404873514 -0.00791975598075516 
-0.001152245434395872 0.001450867164027046 -0.001231079219208366 0.007217740283900837 -0.0001582777042808104 -0.00193115564551429 
-0.008420530277664486 0.001391748332308028 -0.01238934727931146 0.01653562286706074 -0.0005250991079160143 -0.003224040462086123 
-0.009365355671454079 -0.001067713179814808 -0.01484121817726501 0.02015041842147305 -0.001302157644784741 -0.005074384303290679 
-0.007280884754575999 0.006488588160934638 -0.005153802727215087 -0.0005005227124426402 -0.001178576553478169 -0.005255513559234305 
-0.002170394197685758 0.001216485252752225 -0.02836844561551822 0.01966945462082776 -0.0007875599670633929 -0.002558530242953865 
-0.003734696886347653 0.008710117139089547 -0.006522666139270352 -0.00320005447611996 -0.0004195745118538808 -0.002564886141290375 
-0.003960314260403783 0.01177757289851205 -0.002221731423397451 -0.003289284655394765 -0.0003546883968905594 -0.003507213380764992 
-0.002275432258400769 0.007033206568035324 -0.005082451825684377 0.001055543693731458 -0.0001651959644391677 -0.002845643115732237 
-0.003171029848131647 0.00543127747398173 -0.002415890622165372 0.002550059153861835 -0.001454979305400587 -0.002158061495962114 
-0.01006342238609481 -0.004293000920190185 -0.04522885512345159 0.03939899639451384 -0.00210764609819905 -0.004882742996631243 
-0.002414838422682421 0.002356077122742055 -0.01065469039136398 0.01266922792777087 -0.0003368638870129343 -0.001930887662873883 
-0.0009976314433903899 0.007618490335211767 -0.001325593640404194 0.004699592044643678 -0.0001196886531630054 -0.0008777168634535431 
-0.001417906248639243 0.001442440589655329 -0.005946115065344999 0.004019317649854979 -0.0002661074258188405 -0.001046251655375547 
-0.001648730409407826 -0.009407774882696063 -0.01306743351691359 0.0180155886577174 -0.0006227402369296064 -0.001020522937651755 
-0.0101362098102477 -0.006589666747892177 -0.0004459937274746264 0.008225392927017931 -0.003182955977236289 -0.005509368328903566 
-0.004068384416344556 -0.01132690995607724 -0.01221745654981459 0.03884175203429446 -0.0006085060102335321 -0.004115878429551018 
-0.002228278732891541 -0.005952289246294703 0.004037936522557075 0.006791896050948619 -0.000207500295406377 -0.003110431765292989 
-0.002164141893463249 0.0001788266564984574 0.002580591424890743 -0.002934140415541188 -0.0001691086485876329 -0.002000280798411396 
-0.002366516892294797 0.01782525464680416 0.002164990683582283 -0.009106837633901205 -0.0001204757804788411 -0.002315658902176199 
-0.00209035381685292 0.007874924205854561 0.004418244235299571 -0.00240986917636992 -0.0003078356520294875 -0.002366889430171944 
-0.00218243783722184 0.01468614569953854 0.001664633544231028 -0.01239416706632426 -0.0003537622233477339 -0.004204643039123547 
-0.004896884918723043 -0.01785090136140231 -0.009105004091238166 0.02437566797284283 -0.001534884172970643 -0.004200473311387668 
-0.00239787063247993 0.001034734554624328 0.001879772672703138 0.001374531079039356 -6.997514543361679e-05 -0.00176276901945006 
-0.006382585599442921 0.01254703618943633 0.01191695802688367 -0.01439664828390617 -0.008570461051508146 -0.009523165562576024 
-0.001350543187435054 0.005545497501328386 7.325549662706772e-06 -0.00328599808910349 -0.0007160331425334164 -0.0007326113118245819 
-0.004825578700610587 -0.01395088365445846 0.0005395489613624922 0.01863348095589351 -0.004202627343564781 -0.005718577767884933 
-0.006005843650157036 -0.003465938412124275 0.008250286588984799 -0.002956800195295939 -0.003583886215592371 -0.004258181078003234 
-0.002964001872307361 0.002184043990793851 0.006824410273321892 0.0004688209995444846 -0.001852293485003714 -0.003781538589712021 
-0.005068846560132102 0.008959298719543884 0.009742074427217593 -0.02043624333098407 -0.001707379165838248 -0.007491443870960626 
-0.002099994770345399 0.003784682013427005 0.007257434407821852 -0.009000172873677268 -0.0001710404797241698 -0.002793697399621335 
-0.001363514059792169 0.009229799804056775 0.001118286441959427 -0.001822853856252154 -0.0005084152210007162 -0.001732791947093235 
-0.001867634399710817 -0.003919895621391966 0.003162017360627757 0.01683127901837795 -0.001111950219848866 -0.001765244082092125 
-0.01231144876926599 -0.02152332517096835 0.006045639608243896 0.01207675382402941 -0.004726597597892493 -0.006512361800313734 
-0.001742139944081092 -0.006842366063333294 0.001105806070324624 0.00424722929819582 -0.001350376736969587 -0.00147532832690466 
-0.003311875996324626 0.0003400858215744779 0.006914362975332352 -0.008930895608270954 -0.0009805298720082928 -0.004545852745577469 
-0.002379919778874743 0.006265839545292854 0.01139298914617019 -0.001626320275770353 -0.00242899794257944 -0.003378291053936043 
-0.008095507201984287 -0.007797331434673651 0.006661979301312105 0.006233388638904957 -0.00552564877150736 -0.006442859275560256 
-0.007067208162121697 -0.007473302734407287 0.008000239428682186 0.01181827430050533 -0.003023467197611206 -0.004523423635551641 
-0.004191154071958721 -0.004739171834280066 0.01545357057095381 -0.01065763970182374 -0.004523584469004516 -0.004394288057839344 
-0.001494334714982693 0.002146354414916199 0.001925165307783949 0.0004241305354018895 -0.001290367312577296 -0.001993152803183595 
-0.003116949678730415 0.008326263919076279 -0.001293116086304228 -0.007946373952145853 -1.203507980510213e-05 -0.003533935789466966 
-5.527491350023618e-05 0.0006372853702918524 0.0001388595600666545 0.001027814253315106 -2.908951456186771e-06 -0.0006736549472617188 
-0.0003739557794914085 0.005877577053383443 0.001810448993423459 0.001776497402462123 -2.315089489131016e-05 -0.0009680013641252447 
-0.001903678090916001 -0.01117818984973355 0.005680562616808658 0.01665659178138379 -0.003456457139622951 -0.004066252038762469 
-0.006404169980214237 -0.02045723405914536 -0.001076424535174375 0.01278865886550425 -0.00610323394032868 -0.006824020927760944 
-0.0006626183841305684 0.01574643310942273 0.005451526486870665 -0.003823918106581207 -0.0002333368037769479 -0.0004893405179446988 
-0.003480288532244956 0.006959611065946234 -0.006994232692150278 -0.002251024956402444 -0.001449595870466368 -0.006021873452498896 
-0.003662751923226221 0.0007642813518664862 0.006521567293412338 0.007559658509065369 -0.0004874939460497449 -0.0006950336344440409 
-2.806458382269912e-20 0.0007932974639888257 0.0001592149636525758 0.002183701564589499 -0.0001611831352139535 -1.616466535996757e-05 
-0.004749421244880848 -0.009053669025912842 -0.001686152979801104 0.01749963148160514 -0.0007360842277729126 -0.0007081740627304055 
7.016063237613525e-20 -0.003937245006958598 -0.005793317259937162 0.01990205637550143 -0.0007513662432768628 -0.000122474356177898 
-0.001888282008789019 -0.01048464460411241 0.007777806809966989 0.01009320390529441 -0.0003220178306072001 -0.001020114536247226 
-0.0002091854103466128 -0.01150791245792313 0.009702103854595317 0.007029669965517888 -0.0002217838492943732 -0.001362112460230411 
